digraph Tree {
node [shape=box] ;
0 [label="X[3] <= 0.074\ngini = 0.667\nsamples = 70000\nvalue = [23440, 23298, 23262]"] ;
1 [label="X[11] <= -0.214\ngini = 0.634\nsamples = 39589\nvalue = [16446, 7412, 15731]"] ;
0 -> 1 [labeldistance=2.5, labelangle=45, headlabel="True"] ;
3 [label="X[9] <= 1.18\ngini = 0.604\nsamples = 18501\nvalue = [4953, 3671, 9877]"] ;
1 -> 3 ;
5 [label="X[4] <= -3.577\ngini = 0.515\nsamples = 13323\nvalue = [2472, 2174, 8677]"] ;
3 -> 5 ;
17 [label="X[6] <= 1.458\ngini = 0.355\nsamples = 6708\nvalue = [687, 725, 5296]"] ;
5 -> 17 ;
75 [label="X[18] <= 5.047\ngini = 0.294\nsamples = 5684\nvalue = [405, 551, 4728]"] ;
17 -> 75 ;
231 [label="X[15] <= 1.726\ngini = 0.285\nsamples = 5633\nvalue = [365, 551, 4717]"] ;
75 -> 231 ;
281 [label="X[11] <= -1.783\ngini = 0.255\nsamples = 3884\nvalue = [350, 207, 3327]"] ;
231 -> 281 ;
445 [label="X[19] <= -2.676\ngini = 0.17\nsamples = 2146\nvalue = [95, 101, 1950]"] ;
281 -> 445 ;
543 [label="X[12] <= -0.704\ngini = 0.461\nsamples = 154\nvalue = [6, 44, 104]"] ;
445 -> 543 ;
545 [label="gini = 0.129\nsamples = 73\nvalue = [4, 1, 68]"] ;
543 -> 545 ;
546 [label="X[1] <= 1.497\ngini = 0.52\nsamples = 81\nvalue = [2, 43, 36]"] ;
543 -> 546 ;
923 [label="gini = 0.424\nsamples = 53\nvalue = [2, 38, 13]"] ;
546 -> 923 ;
924 [label="gini = 0.293\nsamples = 28\nvalue = [0, 5, 23]"] ;
546 -> 924 ;
544 [label="gini = 0.138\nsamples = 1992\nvalue = [89, 57, 1846]"] ;
445 -> 544 ;
446 [label="X[14] <= -2.958\ngini = 0.347\nsamples = 1738\nvalue = [255, 106, 1377]"] ;
281 -> 446 ;
447 [label="X[6] <= -0.375\ngini = 0.595\nsamples = 151\nvalue = [75, 19, 57]"] ;
446 -> 447 ;
507 [label="gini = 0.543\nsamples = 80\nvalue = [20, 11, 49]"] ;
447 -> 507 ;
508 [label="gini = 0.375\nsamples = 71\nvalue = [55, 8, 8]"] ;
447 -> 508 ;
448 [label="X[8] <= 0.156\ngini = 0.292\nsamples = 1587\nvalue = [180, 87, 1320]"] ;
446 -> 448 ;
497 [label="X[13] <= 0.586\ngini = 0.453\nsamples = 570\nvalue = [104, 62, 404]"] ;
448 -> 497 ;
499 [label="X[16] <= -0.039\ngini = 0.664\nsamples = 78\nvalue = [25, 29, 24]"] ;
497 -> 499 ;
859 [label="gini = 0.0\nsamples = 14\nvalue = [0, 0, 14]"] ;
499 -> 859 ;
860 [label="gini = 0.618\nsamples = 64\nvalue = [25, 29, 10]"] ;
499 -> 860 ;
500 [label="X[19] <= -2.787\ngini = 0.373\nsamples = 492\nvalue = [79, 33, 380]"] ;
497 -> 500 ;
947 [label="gini = 0.549\nsamples = 18\nvalue = [3, 11, 4]"] ;
500 -> 947 ;
948 [label="gini = 0.343\nsamples = 474\nvalue = [76, 22, 376]"] ;
500 -> 948 ;
498 [label="X[1] <= -1.804\ngini = 0.183\nsamples = 1017\nvalue = [76, 25, 916]"] ;
448 -> 498 ;
657 [label="gini = 0.565\nsamples = 59\nvalue = [23, 5, 31]"] ;
498 -> 657 ;
658 [label="gini = 0.143\nsamples = 958\nvalue = [53, 20, 885]"] ;
498 -> 658 ;
282 [label="X[16] <= -0.051\ngini = 0.33\nsamples = 1749\nvalue = [15, 344, 1390]"] ;
231 -> 282 ;
283 [label="gini = 0.128\nsamples = 822\nvalue = [6, 50, 766]"] ;
282 -> 283 ;
284 [label="X[3] <= -2.145\ngini = 0.446\nsamples = 927\nvalue = [9, 294, 624]"] ;
282 -> 284 ;
285 [label="gini = 0.249\nsamples = 422\nvalue = [3, 58, 361]"] ;
284 -> 285 ;
286 [label="X[12] <= 1.948\ngini = 0.51\nsamples = 505\nvalue = [6, 236, 263]"] ;
284 -> 286 ;
287 [label="X[8] <= 1.528\ngini = 0.496\nsamples = 392\nvalue = [5, 229, 158]"] ;
286 -> 287 ;
323 [label="X[19] <= 0.24\ngini = 0.448\nsamples = 324\nvalue = [5, 219, 100]"] ;
287 -> 323 ;
843 [label="X[1] <= 2.508\ngini = 0.384\nsamples = 248\nvalue = [5, 186, 57]"] ;
323 -> 843 ;
847 [label="gini = 0.282\nsamples = 189\nvalue = [5, 158, 26]"] ;
843 -> 847 ;
848 [label="X[18] <= -0.075\ngini = 0.499\nsamples = 59\nvalue = [0, 28, 31]"] ;
843 -> 848 ;
849 [label="gini = 0.405\nsamples = 39\nvalue = [0, 28, 11]"] ;
848 -> 849 ;
850 [label="gini = 0.0\nsamples = 20\nvalue = [0, 0, 20]"] ;
848 -> 850 ;
844 [label="X[9] <= -1.236\ngini = 0.491\nsamples = 76\nvalue = [0, 33, 43]"] ;
323 -> 844 ;
845 [label="gini = 0.193\nsamples = 37\nvalue = [0, 4, 33]"] ;
844 -> 845 ;
846 [label="gini = 0.381\nsamples = 39\nvalue = [0, 29, 10]"] ;
844 -> 846 ;
324 [label="gini = 0.251\nsamples = 68\nvalue = [0, 10, 58]"] ;
287 -> 324 ;
288 [label="gini = 0.133\nsamples = 113\nvalue = [1, 7, 105]"] ;
286 -> 288 ;
232 [label="gini = 0.338\nsamples = 51\nvalue = [40, 0, 11]"] ;
75 -> 232 ;
76 [label="X[9] <= -1.329\ngini = 0.588\nsamples = 1024\nvalue = [282, 174, 568]"] ;
17 -> 76 ;
89 [label="X[15] <= -3.2\ngini = 0.361\nsamples = 546\nvalue = [84, 35, 427]"] ;
76 -> 89 ;
209 [label="X[13] <= 3.956\ngini = 0.346\nsamples = 63\nvalue = [49, 0, 14]"] ;
89 -> 209 ;
755 [label="gini = 0.36\nsamples = 17\nvalue = [4, 0, 13]"] ;
209 -> 755 ;
756 [label="gini = 0.043\nsamples = 46\nvalue = [45, 0, 1]"] ;
209 -> 756 ;
210 [label="X[16] <= 2.616\ngini = 0.258\nsamples = 483\nvalue = [35, 35, 413]"] ;
89 -> 210 ;
737 [label="gini = 0.167\nsamples = 414\nvalue = [23, 14, 377]"] ;
210 -> 737 ;
738 [label="X[18] <= -0.588\ngini = 0.605\nsamples = 69\nvalue = [12, 21, 36]"] ;
210 -> 738 ;
943 [label="gini = 0.625\nsamples = 40\nvalue = [10, 20, 10]"] ;
738 -> 943 ;
944 [label="gini = 0.19\nsamples = 29\nvalue = [2, 1, 26]"] ;
738 -> 944 ;
90 [label="X[15] <= 0.308\ngini = 0.657\nsamples = 478\nvalue = [198, 139, 141]"] ;
76 -> 90 ;
113 [label="X[14] <= -0.722\ngini = 0.43\nsamples = 251\nvalue = [179, 11, 61]"] ;
90 -> 113 ;
261 [label="gini = 0.088\nsamples = 153\nvalue = [146, 2, 5]"] ;
113 -> 261 ;
262 [label="X[16] <= 0.17\ngini = 0.552\nsamples = 98\nvalue = [33, 9, 56]"] ;
113 -> 262 ;
495 [label="gini = 0.177\nsamples = 52\nvalue = [4, 1, 47]"] ;
262 -> 495 ;
496 [label="gini = 0.534\nsamples = 46\nvalue = [29, 8, 9]"] ;
262 -> 496 ;
114 [label="X[16] <= -0.561\ngini = 0.551\nsamples = 227\nvalue = [19, 128, 80]"] ;
90 -> 114 ;
275 [label="gini = 0.241\nsamples = 59\nvalue = [2, 6, 51]"] ;
114 -> 275 ;
276 [label="X[8] <= -2.417\ngini = 0.433\nsamples = 168\nvalue = [17, 122, 29]"] ;
114 -> 276 ;
633 [label="gini = 0.494\nsamples = 18\nvalue = [8, 0, 10]"] ;
276 -> 633 ;
634 [label="gini = 0.319\nsamples = 150\nvalue = [9, 122, 19]"] ;
276 -> 634 ;
18 [label="X[19] <= -1.068\ngini = 0.618\nsamples = 6615\nvalue = [1785, 1449, 3381]"] ;
5 -> 18 ;
37 [label="X[1] <= 1.29\ngini = 0.637\nsamples = 2790\nvalue = [543, 1085, 1162]"] ;
18 -> 37 ;
39 [label="X[18] <= -1.379\ngini = 0.625\nsamples = 1722\nvalue = [445, 859, 418]"] ;
37 -> 39 ;
63 [label="X[14] <= -1.602\ngini = 0.567\nsamples = 442\nvalue = [99, 82, 261]"] ;
39 -> 63 ;
229 [label="X[15] <= -1.518\ngini = 0.428\nsamples = 82\nvalue = [60, 10, 12]"] ;
63 -> 229 ;
621 [label="gini = 0.096\nsamples = 60\nvalue = [57, 2, 1]"] ;
229 -> 621 ;
622 [label="gini = 0.599\nsamples = 22\nvalue = [3, 8, 11]"] ;
229 -> 622 ;
230 [label="X[8] <= 0.002\ngini = 0.47\nsamples = 360\nvalue = [39, 72, 249]"] ;
63 -> 230 ;
473 [label="X[19] <= -2.793\ngini = 0.645\nsamples = 71\nvalue = [18, 32, 21]"] ;
230 -> 473 ;
853 [label="gini = 0.44\nsamples = 43\nvalue = [7, 31, 5]"] ;
473 -> 853 ;
854 [label="gini = 0.518\nsamples = 28\nvalue = [11, 1, 16]"] ;
473 -> 854 ;
474 [label="gini = 0.353\nsamples = 289\nvalue = [21, 40, 228]"] ;
230 -> 474 ;
64 [label="X[6] <= -0.856\ngini = 0.543\nsamples = 1280\nvalue = [346, 777, 157]"] ;
39 -> 64 ;
101 [label="X[8] <= 0.726\ngini = 0.337\nsamples = 679\nvalue = [88, 544, 47]"] ;
64 -> 101 ;
481 [label="X[10] <= 0.17\ngini = 0.243\nsamples = 566\nvalue = [50, 489, 27]"] ;
101 -> 481 ;
723 [label="gini = 0.185\nsamples = 526\nvalue = [40, 473, 13]"] ;
481 -> 723 ;
724 [label="gini = 0.655\nsamples = 40\nvalue = [10, 16, 14]"] ;
481 -> 724 ;
482 [label="X[11] <= -2.286\ngini = 0.619\nsamples = 113\nvalue = [38, 55, 20]"] ;
101 -> 482 ;
515 [label="gini = 0.35\nsamples = 62\nvalue = [9, 49, 4]"] ;
482 -> 515 ;
516 [label="gini = 0.564\nsamples = 51\nvalue = [29, 6, 16]"] ;
482 -> 516 ;
102 [label="X[12] <= -1.012\ngini = 0.632\nsamples = 601\nvalue = [258, 233, 110]"] ;
64 -> 102 ;
175 [label="X[1] <= -1.149\ngini = 0.467\nsamples = 284\nvalue = [197, 58, 29]"] ;
102 -> 175 ;
407 [label="gini = 0.199\nsamples = 171\nvalue = [152, 18, 1]"] ;
175 -> 407 ;
408 [label="X[15] <= -0.52\ngini = 0.655\nsamples = 113\nvalue = [45, 40, 28]"] ;
175 -> 408 ;
537 [label="X[8] <= 0.358\ngini = 0.537\nsamples = 67\nvalue = [40, 6, 21]"] ;
408 -> 537 ;
713 [label="gini = 0.221\nsamples = 41\nvalue = [36, 2, 3]"] ;
537 -> 713 ;
714 [label="gini = 0.473\nsamples = 26\nvalue = [4, 4, 18]"] ;
537 -> 714 ;
538 [label="gini = 0.419\nsamples = 46\nvalue = [5, 34, 7]"] ;
408 -> 538 ;
176 [label="X[3] <= -2.271\ngini = 0.593\nsamples = 317\nvalue = [61, 175, 81]"] ;
102 -> 176 ;
377 [label="X[8] <= -1.688\ngini = 0.61\nsamples = 78\nvalue = [38, 12, 28]"] ;
176 -> 377 ;
793 [label="gini = 0.414\nsamples = 31\nvalue = [5, 3, 23]"] ;
377 -> 793 ;
794 [label="gini = 0.459\nsamples = 47\nvalue = [33, 9, 5]"] ;
377 -> 794 ;
378 [label="X[16] <= -0.963\ngini = 0.476\nsamples = 239\nvalue = [23, 163, 53]"] ;
176 -> 378 ;
839 [label="gini = 0.622\nsamples = 47\nvalue = [9, 15, 23]"] ;
378 -> 839 ;
840 [label="X[14] <= 2.014\ngini = 0.376\nsamples = 192\nvalue = [14, 148, 30]"] ;
378 -> 840 ;
857 [label="gini = 0.3\nsamples = 174\nvalue = [13, 144, 17]"] ;
840 -> 857 ;
858 [label="gini = 0.426\nsamples = 18\nvalue = [1, 4, 13]"] ;
840 -> 858 ;
40 [label="X[8] <= -2.326\ngini = 0.462\nsamples = 1068\nvalue = [98, 226, 744]"] ;
37 -> 40 ;
103 [label="X[6] <= -0.627\ngini = 0.586\nsamples = 200\nvalue = [40, 113, 47]"] ;
40 -> 103 ;
455 [label="gini = 0.396\nsamples = 133\nvalue = [8, 100, 25]"] ;
103 -> 455 ;
456 [label="gini = 0.626\nsamples = 67\nvalue = [32, 13, 22]"] ;
103 -> 456 ;
104 [label="X[9] <= -0.319\ngini = 0.334\nsamples = 868\nvalue = [58, 113, 697]"] ;
40 -> 104 ;
239 [label="X[17] <= -0.979\ngini = 0.169\nsamples = 638\nvalue = [26, 32, 580]"] ;
104 -> 239 ;
667 [label="gini = 0.418\nsamples = 15\nvalue = [11, 1, 3]"] ;
239 -> 667 ;
668 [label="gini = 0.139\nsamples = 623\nvalue = [15, 31, 577]"] ;
239 -> 668 ;
240 [label="X[10] <= -0.892\ngini = 0.598\nsamples = 230\nvalue = [32, 81, 117]"] ;
104 -> 240 ;
341 [label="gini = 0.249\nsamples = 86\nvalue = [8, 4, 74]"] ;
240 -> 341 ;
342 [label="X[15] <= -1.57\ngini = 0.597\nsamples = 144\nvalue = [24, 77, 43]"] ;
240 -> 342 ;
571 [label="gini = 0.441\nsamples = 31\nvalue = [22, 7, 2]"] ;
342 -> 571 ;
572 [label="X[17] <= 0.859\ngini = 0.484\nsamples = 113\nvalue = [2, 70, 41]"] ;
342 -> 572 ;
801 [label="gini = 0.443\nsamples = 34\nvalue = [2, 8, 24]"] ;
572 -> 801 ;
802 [label="gini = 0.338\nsamples = 79\nvalue = [0, 62, 17]"] ;
572 -> 802 ;
38 [label="X[15] <= 0.318\ngini = 0.549\nsamples = 3825\nvalue = [1242, 364, 2219]"] ;
18 -> 38 ;
83 [label="X[2] <= 0.897\ngini = 0.534\nsamples = 2615\nvalue = [1078, 120, 1417]"] ;
38 -> 83 ;
129 [label="X[18] <= -2.655\ngini = 0.549\nsamples = 1702\nvalue = [844, 93, 765]"] ;
83 -> 129 ;
183 [label="X[1] <= 2.793\ngini = 0.254\nsamples = 166\nvalue = [19, 5, 142]"] ;
129 -> 183 ;
553 [label="gini = 0.157\nsamples = 155\nvalue = [8, 5, 142]"] ;
183 -> 553 ;
554 [label="gini = 0.0\nsamples = 11\nvalue = [11, 0, 0]"] ;
183 -> 554 ;
184 [label="X[12] <= -0.259\ngini = 0.544\nsamples = 1536\nvalue = [825, 88, 623]"] ;
129 -> 184 ;
185 [label="X[17] <= 0.545\ngini = 0.482\nsamples = 933\nvalue = [611, 47, 275]"] ;
184 -> 185 ;
297 [label="gini = 0.322\nsamples = 368\nvalue = [299, 28, 41]"] ;
185 -> 297 ;
298 [label="X[10] <= -2.214\ngini = 0.522\nsamples = 565\nvalue = [312, 19, 234]"] ;
185 -> 298 ;
449 [label="X[1] <= -1.074\ngini = 0.48\nsamples = 157\nvalue = [51, 5, 101]"] ;
298 -> 449 ;
453 [label="gini = 0.38\nsamples = 43\nvalue = [33, 3, 7]"] ;
449 -> 453 ;
454 [label="gini = 0.295\nsamples = 114\nvalue = [18, 2, 94]"] ;
449 -> 454 ;
450 [label="X[6] <= 0.222\ngini = 0.483\nsamples = 408\nvalue = [261, 14, 133]"] ;
298 -> 450 ;
451 [label="X[8] <= -0.156\ngini = 0.552\nsamples = 173\nvalue = [68, 12, 93]"] ;
450 -> 451 ;
471 [label="X[2] <= -2.047\ngini = 0.437\nsamples = 118\nvalue = [27, 7, 84]"] ;
451 -> 471 ;
807 [label="gini = 0.338\nsamples = 15\nvalue = [12, 2, 1]"] ;
471 -> 807 ;
808 [label="gini = 0.327\nsamples = 103\nvalue = [15, 5, 83]"] ;
471 -> 808 ;
472 [label="gini = 0.409\nsamples = 55\nvalue = [41, 5, 9]"] ;
451 -> 472 ;
452 [label="X[18] <= 3.249\ngini = 0.296\nsamples = 235\nvalue = [193, 2, 40]"] ;
450 -> 452 ;
511 [label="gini = 0.161\nsamples = 195\nvalue = [178, 2, 15]"] ;
452 -> 511 ;
512 [label="X[8] <= -1.614\ngini = 0.469\nsamples = 40\nvalue = [15, 0, 25]"] ;
452 -> 512 ;
907 [label="gini = 0.198\nsamples = 27\nvalue = [3, 0, 24]"] ;
512 -> 907 ;
908 [label="gini = 0.142\nsamples = 13\nvalue = [12, 0, 1]"] ;
512 -> 908 ;
186 [label="X[10] <= -0.468\ngini = 0.536\nsamples = 603\nvalue = [214, 41, 348]"] ;
184 -> 186 ;
347 [label="X[6] <= -0.977\ngini = 0.437\nsamples = 278\nvalue = [47, 30, 201]"] ;
186 -> 347 ;
379 [label="gini = 0.665\nsamples = 76\nvalue = [28, 24, 24]"] ;
347 -> 379 ;
380 [label="gini = 0.222\nsamples = 202\nvalue = [19, 6, 177]"] ;
347 -> 380 ;
348 [label="X[8] <= -2.254\ngini = 0.53\nsamples = 325\nvalue = [167, 11, 147]"] ;
186 -> 348 ;
423 [label="X[16] <= -1.4\ngini = 0.448\nsamples = 147\nvalue = [46, 2, 99]"] ;
348 -> 423 ;
649 [label="gini = 0.401\nsamples = 36\nvalue = [26, 0, 10]"] ;
423 -> 649 ;
650 [label="gini = 0.324\nsamples = 111\nvalue = [20, 2, 89]"] ;
423 -> 650 ;
424 [label="X[18] <= 0.14\ngini = 0.463\nsamples = 178\nvalue = [121, 9, 48]"] ;
348 -> 424 ;
861 [label="gini = 0.581\nsamples = 57\nvalue = [22, 6, 29]"] ;
424 -> 861 ;
862 [label="gini = 0.305\nsamples = 121\nvalue = [99, 3, 19]"] ;
424 -> 862 ;
130 [label="X[6] <= 1.135\ngini = 0.423\nsamples = 913\nvalue = [234, 27, 652]"] ;
83 -> 130 ;
217 [label="X[18] <= 5.306\ngini = 0.321\nsamples = 685\nvalue = [112, 20, 553]"] ;
130 -> 217 ;
709 [label="gini = 0.293\nsamples = 657\nvalue = [93, 20, 544]"] ;
217 -> 709 ;
710 [label="gini = 0.436\nsamples = 28\nvalue = [19, 0, 9]"] ;
217 -> 710 ;
218 [label="X[18] <= 0.85\ngini = 0.524\nsamples = 228\nvalue = [122, 7, 99]"] ;
130 -> 218 ;
251 [label="X[14] <= 1.173\ngini = 0.37\nsamples = 136\nvalue = [105, 7, 24]"] ;
218 -> 251 ;
609 [label="gini = 0.241\nsamples = 119\nvalue = [103, 6, 10]"] ;
251 -> 609 ;
610 [label="gini = 0.304\nsamples = 17\nvalue = [2, 1, 14]"] ;
251 -> 610 ;
252 [label="X[9] <= -0.079\ngini = 0.301\nsamples = 92\nvalue = [17, 0, 75]"] ;
218 -> 252 ;
851 [label="gini = 0.123\nsamples = 76\nvalue = [5, 0, 71]"] ;
252 -> 851 ;
852 [label="gini = 0.375\nsamples = 16\nvalue = [12, 0, 4]"] ;
252 -> 852 ;
84 [label="X[12] <= -1.722\ngini = 0.502\nsamples = 1210\nvalue = [164, 244, 802]"] ;
38 -> 84 ;
149 [label="X[3] <= -1.037\ngini = 0.626\nsamples = 309\nvalue = [56, 143, 110]"] ;
84 -> 149 ;
317 [label="X[18] <= 0.625\ngini = 0.572\nsamples = 160\nvalue = [28, 39, 93]"] ;
149 -> 317 ;
721 [label="gini = 0.532\nsamples = 38\nvalue = [6, 24, 8]"] ;
317 -> 721 ;
722 [label="X[17] <= -0.616\ngini = 0.467\nsamples = 122\nvalue = [22, 15, 85]"] ;
317 -> 722 ;
745 [label="gini = 0.391\nsamples = 15\nvalue = [11, 4, 0]"] ;
722 -> 745 ;
746 [label="gini = 0.348\nsamples = 107\nvalue = [11, 11, 85]"] ;
722 -> 746 ;
318 [label="gini = 0.464\nsamples = 149\nvalue = [28, 104, 17]"] ;
149 -> 318 ;
150 [label="X[17] <= -0.823\ngini = 0.383\nsamples = 901\nvalue = [108, 101, 692]"] ;
84 -> 150 ;
259 [label="gini = 0.659\nsamples = 127\nvalue = [34, 49, 44]"] ;
150 -> 259 ;
260 [label="X[8] <= -0.881\ngini = 0.285\nsamples = 774\nvalue = [74, 52, 648]"] ;
150 -> 260 ;
353 [label="gini = 0.165\nsamples = 632\nvalue = [33, 23, 576]"] ;
260 -> 353 ;
354 [label="X[16] <= -0.35\ngini = 0.618\nsamples = 142\nvalue = [41, 29, 72]"] ;
260 -> 354 ;
489 [label="gini = 0.467\nsamples = 105\nvalue = [25, 8, 72]"] ;
354 -> 489 ;
490 [label="X[14] <= 0.186\ngini = 0.491\nsamples = 37\nvalue = [16, 21, 0]"] ;
354 -> 490 ;
941 [label="gini = 0.1\nsamples = 19\nvalue = [1, 18, 0]"] ;
490 -> 941 ;
942 [label="gini = 0.278\nsamples = 18\nvalue = [15, 3, 0]"] ;
490 -> 942 ;
6 [label="X[15] <= -0.16\ngini = 0.633\nsamples = 5178\nvalue = [2481, 1497, 1200]"] ;
3 -> 6 ;
25 [label="X[16] <= 1.027\ngini = 0.497\nsamples = 2627\nvalue = [1758, 390, 479]"] ;
6 -> 25 ;
135 [label="X[2] <= 0.485\ngini = 0.59\nsamples = 1453\nvalue = [801, 253, 399]"] ;
25 -> 135 ;
161 [label="X[19] <= -1.564\ngini = 0.521\nsamples = 931\nvalue = [599, 192, 140]"] ;
135 -> 161 ;
295 [label="X[10] <= -0.242\ngini = 0.606\nsamples = 187\nvalue = [69, 91, 27]"] ;
161 -> 295 ;
525 [label="gini = 0.593\nsamples = 90\nvalue = [50, 20, 20]"] ;
295 -> 525 ;
526 [label="gini = 0.421\nsamples = 97\nvalue = [19, 71, 7]"] ;
295 -> 526 ;
296 [label="X[1] <= 0.914\ngini = 0.451\nsamples = 744\nvalue = [530, 101, 113]"] ;
161 -> 296 ;
419 [label="X[17] <= 1.565\ngini = 0.571\nsamples = 424\nvalue = [248, 82, 94]"] ;
296 -> 419 ;
421 [label="X[10] <= -1.288\ngini = 0.662\nsamples = 244\nvalue = [95, 71, 78]"] ;
419 -> 421 ;
615 [label="X[14] <= 2.282\ngini = 0.571\nsamples = 108\nvalue = [39, 11, 58]"] ;
421 -> 615 ;
881 [label="gini = 0.606\nsamples = 76\nvalue = [37, 11, 28]"] ;
615 -> 881 ;
882 [label="gini = 0.117\nsamples = 32\nvalue = [2, 0, 30]"] ;
615 -> 882 ;
616 [label="X[3] <= -2.007\ngini = 0.614\nsamples = 136\nvalue = [56, 60, 20]"] ;
421 -> 616 ;
617 [label="gini = 0.406\nsamples = 52\nvalue = [39, 6, 7]"] ;
616 -> 617 ;
618 [label="gini = 0.522\nsamples = 84\nvalue = [17, 54, 13]"] ;
616 -> 618 ;
422 [label="gini = 0.266\nsamples = 180\nvalue = [153, 11, 16]"] ;
419 -> 422 ;
420 [label="gini = 0.216\nsamples = 320\nvalue = [282, 19, 19]"] ;
296 -> 420 ;
162 [label="X[6] <= 0.908\ngini = 0.59\nsamples = 522\nvalue = [202, 61, 259]"] ;
135 -> 162 ;
163 [label="X[19] <= -2.858\ngini = 0.502\nsamples = 351\nvalue = [68, 50, 233]"] ;
162 -> 163 ;
409 [label="gini = 0.447\nsamples = 35\nvalue = [6, 25, 4]"] ;
163 -> 409 ;
410 [label="gini = 0.43\nsamples = 316\nvalue = [62, 25, 229]"] ;
163 -> 410 ;
164 [label="X[14] <= 1.991\ngini = 0.359\nsamples = 171\nvalue = [134, 11, 26]"] ;
162 -> 164 ;
509 [label="gini = 0.207\nsamples = 141\nvalue = [125, 11, 5]"] ;
164 -> 509 ;
510 [label="gini = 0.42\nsamples = 30\nvalue = [9, 0, 21]"] ;
164 -> 510 ;
136 [label="X[13] <= -3.252\ngini = 0.317\nsamples = 1174\nvalue = [957, 137, 80]"] ;
25 -> 136 ;
459 [label="gini = 0.524\nsamples = 169\nvalue = [99, 61, 9]"] ;
136 -> 459 ;
460 [label="X[6] <= -2.836\ngini = 0.26\nsamples = 1005\nvalue = [858, 76, 71]"] ;
136 -> 460 ;
749 [label="X[2] <= 2.334\ngini = 0.483\nsamples = 140\nvalue = [92, 8, 40]"] ;
460 -> 749 ;
751 [label="gini = 0.277\nsamples = 102\nvalue = [86, 7, 9]"] ;
749 -> 751 ;
752 [label="gini = 0.309\nsamples = 38\nvalue = [6, 1, 31]"] ;
749 -> 752 ;
750 [label="gini = 0.208\nsamples = 865\nvalue = [766, 68, 31]"] ;
460 -> 750 ;
26 [label="X[6] <= 0.038\ngini = 0.651\nsamples = 2551\nvalue = [723, 1107, 721]"] ;
6 -> 26 ;
57 [label="X[12] <= 1.253\ngini = 0.602\nsamples = 1374\nvalue = [173, 614, 587]"] ;
26 -> 57 ;
105 [label="X[17] <= 0.069\ngini = 0.566\nsamples = 997\nvalue = [112, 559, 326]"] ;
57 -> 105 ;
143 [label="X[4] <= -1.431\ngini = 0.577\nsamples = 303\nvalue = [53, 76, 174]"] ;
105 -> 143 ;
247 [label="X[8] <= -1.227\ngini = 0.351\nsamples = 197\nvalue = [21, 20, 156]"] ;
143 -> 247 ;
663 [label="gini = 0.666\nsamples = 42\nvalue = [14, 13, 15]"] ;
247 -> 663 ;
664 [label="gini = 0.168\nsamples = 155\nvalue = [7, 7, 141]"] ;
247 -> 664 ;
248 [label="X[14] <= 0.19\ngini = 0.601\nsamples = 106\nvalue = [32, 56, 18]"] ;
143 -> 248 ;
935 [label="gini = 0.307\nsamples = 49\nvalue = [8, 40, 1]"] ;
248 -> 935 ;
936 [label="gini = 0.655\nsamples = 57\nvalue = [24, 16, 17]"] ;
248 -> 936 ;
144 [label="X[10] <= -2.363\ngini = 0.46\nsamples = 694\nvalue = [59, 483, 152]"] ;
105 -> 144 ;
303 [label="X[1] <= -2.283\ngini = 0.598\nsamples = 108\nvalue = [19, 31, 58]"] ;
144 -> 303 ;
711 [label="gini = 0.533\nsamples = 28\nvalue = [14, 13, 1]"] ;
303 -> 711 ;
712 [label="gini = 0.438\nsamples = 80\nvalue = [5, 18, 57]"] ;
303 -> 712 ;
304 [label="X[1] <= -0.057\ngini = 0.375\nsamples = 586\nvalue = [40, 452, 94]"] ;
144 -> 304 ;
457 [label="X[8] <= -3.536\ngini = 0.604\nsamples = 164\nvalue = [27, 85, 52]"] ;
304 -> 457 ;
561 [label="gini = 0.299\nsamples = 34\nvalue = [1, 5, 28]"] ;
457 -> 561 ;
562 [label="X[2] <= 1.401\ngini = 0.547\nsamples = 130\nvalue = [26, 80, 24]"] ;
457 -> 562 ;
827 [label="gini = 0.484\nsamples = 117\nvalue = [26, 79, 12]"] ;
562 -> 827 ;
828 [label="gini = 0.142\nsamples = 13\nvalue = [0, 1, 12]"] ;
562 -> 828 ;
458 [label="gini = 0.233\nsamples = 422\nvalue = [13, 367, 42]"] ;
304 -> 458 ;
106 [label="X[16] <= 0.826\ngini = 0.473\nsamples = 377\nvalue = [61, 55, 261]"] ;
57 -> 106 ;
313 [label="X[18] <= 3.833\ngini = 0.302\nsamples = 288\nvalue = [25, 25, 238]"] ;
106 -> 313 ;
887 [label="gini = 0.252\nsamples = 277\nvalue = [20, 19, 238]"] ;
313 -> 887 ;
888 [label="gini = 0.496\nsamples = 11\nvalue = [5, 6, 0]"] ;
313 -> 888 ;
314 [label="X[18] <= 1.019\ngini = 0.656\nsamples = 89\nvalue = [36, 30, 23]"] ;
106 -> 314 ;
815 [label="X[2] <= -1.259\ngini = 0.608\nsamples = 53\nvalue = [8, 26, 19]"] ;
314 -> 815 ;
913 [label="gini = 0.313\nsamples = 27\nvalue = [4, 22, 1]"] ;
815 -> 913 ;
914 [label="gini = 0.473\nsamples = 26\nvalue = [4, 4, 18]"] ;
815 -> 914 ;
816 [label="gini = 0.37\nsamples = 36\nvalue = [28, 4, 4]"] ;
314 -> 816 ;
58 [label="X[10] <= -0.32\ngini = 0.593\nsamples = 1177\nvalue = [550, 493, 134]"] ;
26 -> 58 ;
85 [label="X[18] <= -0.974\ngini = 0.554\nsamples = 638\nvalue = [387, 134, 117]"] ;
58 -> 85 ;
267 [label="X[16] <= -0.699\ngini = 0.653\nsamples = 234\nvalue = [82, 95, 57]"] ;
85 -> 267 ;
299 [label="X[2] <= -2.345\ngini = 0.467\nsamples = 76\nvalue = [24, 2, 50]"] ;
267 -> 299 ;
693 [label="gini = 0.298\nsamples = 22\nvalue = [18, 0, 4]"] ;
299 -> 693 ;
694 [label="gini = 0.261\nsamples = 54\nvalue = [6, 2, 46]"] ;
299 -> 694 ;
300 [label="X[11] <= -1.465\ngini = 0.517\nsamples = 158\nvalue = [58, 93, 7]"] ;
267 -> 300 ;
959 [label="gini = 0.407\nsamples = 86\nvalue = [16, 64, 6]"] ;
300 -> 959 ;
960 [label="gini = 0.497\nsamples = 72\nvalue = [42, 29, 1]"] ;
300 -> 960 ;
268 [label="X[16] <= -2.132\ngini = 0.399\nsamples = 404\nvalue = [305, 39, 60]"] ;
85 -> 268 ;
591 [label="gini = 0.514\nsamples = 64\nvalue = [30, 1, 33]"] ;
268 -> 591 ;
592 [label="X[15] <= 2.767\ngini = 0.327\nsamples = 340\nvalue = [275, 38, 27]"] ;
268 -> 592 ;
983 [label="gini = 0.244\nsamples = 294\nvalue = [254, 21, 19]"] ;
592 -> 983 ;
984 [label="gini = 0.625\nsamples = 46\nvalue = [21, 17, 8]"] ;
592 -> 984 ;
86 [label="X[19] <= 0.701\ngini = 0.464\nsamples = 539\nvalue = [163, 359, 17]"] ;
58 -> 86 ;
237 [label="X[4] <= 6.612\ngini = 0.29\nsamples = 325\nvalue = [44, 270, 11]"] ;
86 -> 237 ;
567 [label="gini = 0.213\nsamples = 303\nvalue = [31, 267, 5]"] ;
237 -> 567 ;
568 [label="gini = 0.558\nsamples = 22\nvalue = [13, 3, 6]"] ;
237 -> 568 ;
238 [label="X[8] <= -1.267\ngini = 0.517\nsamples = 214\nvalue = [119, 89, 6]"] ;
86 -> 238 ;
415 [label="gini = 0.348\nsamples = 108\nvalue = [85, 19, 4]"] ;
238 -> 415 ;
416 [label="X[14] <= 0.779\ngini = 0.461\nsamples = 106\nvalue = [34, 70, 2]"] ;
238 -> 416 ;
781 [label="gini = 0.236\nsamples = 66\nvalue = [9, 57, 0]"] ;
416 -> 781 ;
782 [label="gini = 0.501\nsamples = 40\nvalue = [25, 13, 2]"] ;
416 -> 782 ;
4 [label="X[15] <= 0.657\ngini = 0.594\nsamples = 21088\nvalue = [11493, 3741, 5854]"] ;
1 -> 4 ;
11 [label="X[14] <= 0.942\ngini = 0.516\nsamples = 14658\nvalue = [9378, 1599, 3681]"] ;
4 -> 11 ;
13 [label="X[17] <= -2.124\ngini = 0.422\nsamples = 8388\nvalue = [6180, 1023, 1185]"] ;
11 -> 13 ;
65 [label="X[3] <= -2.091\ngini = 0.518\nsamples = 728\nvalue = [387, 325, 16]"] ;
13 -> 65 ;
167 [label="X[8] <= -1.689\ngini = 0.312\nsamples = 256\nvalue = [208, 42, 6]"] ;
65 -> 167 ;
757 [label="gini = 0.147\nsamples = 188\nvalue = [173, 15, 0]"] ;
167 -> 757 ;
758 [label="gini = 0.57\nsamples = 68\nvalue = [35, 27, 6]"] ;
167 -> 758 ;
168 [label="X[1] <= 2.127\ngini = 0.496\nsamples = 472\nvalue = [179, 283, 10]"] ;
65 -> 168 ;
273 [label="X[16] <= 2.084\ngini = 0.429\nsamples = 370\nvalue = [100, 261, 9]"] ;
168 -> 273 ;
659 [label="gini = 0.359\nsamples = 291\nvalue = [56, 226, 9]"] ;
273 -> 659 ;
660 [label="X[10] <= -3.516\ngini = 0.494\nsamples = 79\nvalue = [44, 35, 0]"] ;
273 -> 660 ;
665 [label="gini = 0.204\nsamples = 26\nvalue = [3, 23, 0]"] ;
660 -> 665 ;
666 [label="gini = 0.35\nsamples = 53\nvalue = [41, 12, 0]"] ;
660 -> 666 ;
274 [label="X[16] <= -0.432\ngini = 0.354\nsamples = 102\nvalue = [79, 22, 1]"] ;
168 -> 274 ;
909 [label="gini = 0.487\nsamples = 31\nvalue = [13, 18, 0]"] ;
274 -> 909 ;
910 [label="gini = 0.133\nsamples = 71\nvalue = [66, 4, 1]"] ;
274 -> 910 ;
66 [label="X[1] <= 2.87\ngini = 0.396\nsamples = 7660\nvalue = [5793, 698, 1169]"] ;
13 -> 66 ;
69 [label="X[11] <= 1.315\ngini = 0.356\nsamples = 6624\nvalue = [5224, 634, 766]"] ;
66 -> 69 ;
107 [label="X[6] <= 0.619\ngini = 0.477\nsamples = 2875\nvalue = [1975, 364, 536]"] ;
69 -> 107 ;
109 [label="X[2] <= 1.725\ngini = 0.596\nsamples = 1534\nvalue = [830, 268, 436]"] ;
107 -> 109 ;
189 [label="X[1] <= 0.113\ngini = 0.564\nsamples = 1093\nvalue = [650, 240, 203]"] ;
109 -> 189 ;
427 [label="X[19] <= 2.177\ngini = 0.455\nsamples = 578\nvalue = [409, 100, 69]"] ;
189 -> 427 ;
529 [label="X[17] <= -0.314\ngini = 0.403\nsamples = 516\nvalue = [386, 93, 37]"] ;
427 -> 529 ;
531 [label="X[18] <= 2.85\ngini = 0.536\nsamples = 134\nvalue = [71, 57, 6]"] ;
529 -> 531 ;
767 [label="gini = 0.467\nsamples = 103\nvalue = [68, 32, 3]"] ;
531 -> 767 ;
768 [label="gini = 0.331\nsamples = 31\nvalue = [3, 25, 3]"] ;
531 -> 768 ;
532 [label="gini = 0.305\nsamples = 382\nvalue = [315, 36, 31]"] ;
529 -> 532 ;
530 [label="gini = 0.583\nsamples = 62\nvalue = [23, 7, 32]"] ;
427 -> 530 ;
428 [label="X[19] <= -1.476\ngini = 0.639\nsamples = 515\nvalue = [241, 140, 134]"] ;
189 -> 428 ;
429 [label="X[8] <= -0.193\ngini = 0.62\nsamples = 176\nvalue = [38, 89, 49]"] ;
428 -> 429 ;
431 [label="X[18] <= -0.742\ngini = 0.426\nsamples = 116\nvalue = [25, 84, 7]"] ;
429 -> 431 ;
865 [label="gini = 0.59\nsamples = 27\nvalue = [15, 7, 5]"] ;
431 -> 865 ;
866 [label="gini = 0.238\nsamples = 89\nvalue = [10, 77, 2]"] ;
431 -> 866 ;
432 [label="gini = 0.456\nsamples = 60\nvalue = [13, 5, 42]"] ;
429 -> 432 ;
430 [label="X[15] <= -1.468\ngini = 0.556\nsamples = 339\nvalue = [203, 51, 85]"] ;
428 -> 430 ;
547 [label="gini = 0.319\nsamples = 152\nvalue = [123, 5, 24]"] ;
430 -> 547 ;
548 [label="X[2] <= -1.04\ngini = 0.65\nsamples = 187\nvalue = [80, 46, 61]"] ;
430 -> 548 ;
957 [label="gini = 0.58\nsamples = 87\nvalue = [46, 31, 10]"] ;
548 -> 957 ;
958 [label="gini = 0.602\nsamples = 100\nvalue = [34, 15, 51]"] ;
548 -> 958 ;
190 [label="X[18] <= -1.111\ngini = 0.55\nsamples = 441\nvalue = [180, 28, 233]"] ;
109 -> 190 ;
349 [label="X[10] <= -2.091\ngini = 0.474\nsamples = 150\nvalue = [100, 8, 42]"] ;
190 -> 349 ;
761 [label="gini = 0.138\nsamples = 67\nvalue = [62, 0, 5]"] ;
349 -> 761 ;
762 [label="X[14] <= -1.111\ngini = 0.582\nsamples = 83\nvalue = [38, 8, 37]"] ;
349 -> 762 ;
945 [label="gini = 0.473\nsamples = 45\nvalue = [31, 5, 9]"] ;
762 -> 945 ;
946 [label="gini = 0.417\nsamples = 38\nvalue = [7, 3, 28]"] ;
762 -> 946 ;
350 [label="X[12] <= 0.106\ngini = 0.489\nsamples = 291\nvalue = [80, 20, 191]"] ;
190 -> 350 ;
351 [label="X[13] <= 2.304\ngini = 0.285\nsamples = 191\nvalue = [18, 13, 160]"] ;
350 -> 351 ;
919 [label="gini = 0.635\nsamples = 32\nvalue = [13, 6, 13]"] ;
351 -> 919 ;
920 [label="gini = 0.142\nsamples = 159\nvalue = [5, 7, 147]"] ;
351 -> 920 ;
352 [label="gini = 0.515\nsamples = 100\nvalue = [62, 7, 31]"] ;
350 -> 352 ;
110 [label="X[16] <= -0.214\ngini = 0.26\nsamples = 1341\nvalue = [1145, 96, 100]"] ;
107 -> 110 ;
695 [label="X[18] <= -2.855\ngini = 0.458\nsamples = 337\nvalue = [238, 45, 54]"] ;
110 -> 695 ;
743 [label="gini = 0.665\nsamples = 49\nvalue = [15, 18, 16]"] ;
695 -> 743 ;
744 [label="gini = 0.374\nsamples = 288\nvalue = [223, 27, 38]"] ;
695 -> 744 ;
696 [label="gini = 0.179\nsamples = 1004\nvalue = [907, 51, 46]"] ;
110 -> 696 ;
108 [label="X[16] <= -2.246\ngini = 0.24\nsamples = 3749\nvalue = [3249, 270, 230]"] ;
69 -> 108 ;
147 [label="X[17] <= 1.545\ngini = 0.569\nsamples = 343\nvalue = [187, 120, 36]"] ;
108 -> 147 ;
245 [label="X[10] <= -2.135\ngini = 0.538\nsamples = 189\nvalue = [63, 111, 15]"] ;
147 -> 245 ;
643 [label="gini = 0.515\nsamples = 53\nvalue = [34, 13, 6]"] ;
245 -> 643 ;
644 [label="X[8] <= -3.096\ngini = 0.431\nsamples = 136\nvalue = [29, 98, 9]"] ;
245 -> 644 ;
645 [label="gini = 0.29\nsamples = 18\nvalue = [15, 1, 2]"] ;
644 -> 645 ;
646 [label="gini = 0.307\nsamples = 118\nvalue = [14, 97, 7]"] ;
644 -> 646 ;
246 [label="gini = 0.33\nsamples = 154\nvalue = [124, 9, 21]"] ;
147 -> 246 ;
148 [label="X[11] <= 2.357\ngini = 0.187\nsamples = 3406\nvalue = [3062, 150, 194]"] ;
108 -> 148 ;
805 [label="gini = 0.281\nsamples = 1411\nvalue = [1185, 94, 132]"] ;
148 -> 805 ;
806 [label="gini = 0.113\nsamples = 1995\nvalue = [1877, 56, 62]"] ;
148 -> 806 ;
70 [label="X[8] <= -0.917\ngini = 0.543\nsamples = 1036\nvalue = [569, 64, 403]"] ;
66 -> 70 ;
71 [label="X[15] <= -0.53\ngini = 0.373\nsamples = 602\nvalue = [466, 49, 87]"] ;
70 -> 71 ;
319 [label="X[17] <= 2.713\ngini = 0.218\nsamples = 462\nvalue = [406, 12, 44]"] ;
71 -> 319 ;
985 [label="gini = 0.145\nsamples = 402\nvalue = [371, 8, 23]"] ;
319 -> 985 ;
986 [label="X[6] <= 0.142\ngini = 0.533\nsamples = 60\nvalue = [35, 4, 21]"] ;
319 -> 986 ;
987 [label="gini = 0.541\nsamples = 31\nvalue = [8, 4, 19]"] ;
986 -> 987 ;
988 [label="gini = 0.128\nsamples = 29\nvalue = [27, 0, 2]"] ;
986 -> 988 ;
320 [label="X[19] <= -0.433\ngini = 0.652\nsamples = 140\nvalue = [60, 37, 43]"] ;
71 -> 320 ;
519 [label="X[9] <= -0.822\ngini = 0.582\nsamples = 63\nvalue = [6, 29, 28]"] ;
320 -> 519 ;
867 [label="gini = 0.416\nsamples = 31\nvalue = [4, 4, 23]"] ;
519 -> 867 ;
868 [label="gini = 0.361\nsamples = 32\nvalue = [2, 25, 5]"] ;
519 -> 868 ;
520 [label="gini = 0.459\nsamples = 77\nvalue = [54, 8, 15]"] ;
320 -> 520 ;
72 [label="X[15] <= -2.825\ngini = 0.412\nsamples = 434\nvalue = [103, 15, 316]"] ;
70 -> 72 ;
331 [label="gini = 0.476\nsamples = 86\nvalue = [54, 1, 31]"] ;
72 -> 331 ;
332 [label="X[9] <= -0.392\ngini = 0.308\nsamples = 348\nvalue = [49, 14, 285]"] ;
72 -> 332 ;
577 [label="gini = 0.173\nsamples = 284\nvalue = [25, 2, 257]"] ;
332 -> 577 ;
578 [label="X[6] <= -2.165\ngini = 0.633\nsamples = 64\nvalue = [24, 12, 28]"] ;
332 -> 578 ;
773 [label="gini = 0.331\nsamples = 31\nvalue = [3, 3, 25]"] ;
578 -> 773 ;
774 [label="gini = 0.512\nsamples = 33\nvalue = [21, 9, 3]"] ;
578 -> 774 ;
14 [label="X[2] <= 0.039\ngini = 0.573\nsamples = 6270\nvalue = [3198, 576, 2496]"] ;
11 -> 14 ;
15 [label="X[17] <= -2.043\ngini = 0.456\nsamples = 2851\nvalue = [2008, 285, 558]"] ;
14 -> 15 ;
79 [label="X[12] <= -0.757\ngini = 0.484\nsamples = 212\nvalue = [70, 135, 7]"] ;
15 -> 79 ;
417 [label="X[16] <= 0.102\ngini = 0.472\nsamples = 77\nvalue = [50, 25, 2]"] ;
79 -> 417 ;
961 [label="gini = 0.479\nsamples = 31\nvalue = [10, 20, 1]"] ;
417 -> 961 ;
962 [label="gini = 0.232\nsamples = 46\nvalue = [40, 5, 1]"] ;
417 -> 962 ;
418 [label="gini = 0.313\nsamples = 135\nvalue = [20, 110, 5]"] ;
79 -> 418 ;
80 [label="X[19] <= -1.521\ngini = 0.414\nsamples = 2639\nvalue = [1938, 150, 551]"] ;
15 -> 80 ;
139 [label="X[1] <= 1.857\ngini = 0.574\nsamples = 515\nvalue = [250, 45, 220]"] ;
80 -> 139 ;
195 [label="X[18] <= -3.109\ngini = 0.504\nsamples = 336\nvalue = [218, 32, 86]"] ;
139 -> 195 ;
333 [label="gini = 0.274\nsamples = 44\nvalue = [6, 1, 37]"] ;
195 -> 333 ;
334 [label="X[1] <= -0.031\ngini = 0.433\nsamples = 292\nvalue = [212, 31, 49]"] ;
195 -> 334 ;
925 [label="gini = 0.26\nsamples = 171\nvalue = [146, 14, 11]"] ;
334 -> 925 ;
926 [label="gini = 0.584\nsamples = 121\nvalue = [66, 17, 38]"] ;
334 -> 926 ;
196 [label="X[17] <= 0.143\ngini = 0.402\nsamples = 179\nvalue = [32, 13, 134]"] ;
139 -> 196 ;
569 [label="gini = 0.486\nsamples = 25\nvalue = [17, 4, 4]"] ;
196 -> 569 ;
570 [label="gini = 0.274\nsamples = 154\nvalue = [15, 9, 130]"] ;
196 -> 570 ;
140 [label="X[16] <= 0.039\ngini = 0.342\nsamples = 2124\nvalue = [1688, 105, 331]"] ;
80 -> 140 ;
215 [label="X[2] <= -1.403\ngini = 0.51\nsamples = 817\nvalue = [525, 79, 213]"] ;
140 -> 215 ;
225 [label="X[18] <= 3.769\ngini = 0.336\nsamples = 464\nvalue = [372, 32, 60]"] ;
215 -> 225 ;
381 [label="X[12] <= -0.483\ngini = 0.265\nsamples = 422\nvalue = [359, 32, 31]"] ;
225 -> 381 ;
901 [label="gini = 0.125\nsamples = 305\nvalue = [285, 12, 8]"] ;
381 -> 901 ;
902 [label="gini = 0.532\nsamples = 117\nvalue = [74, 20, 23]"] ;
381 -> 902 ;
382 [label="gini = 0.427\nsamples = 42\nvalue = [13, 0, 29]"] ;
225 -> 382 ;
226 [label="X[18] <= 1.655\ngini = 0.607\nsamples = 353\nvalue = [153, 47, 153]"] ;
215 -> 226 ;
639 [label="gini = 0.605\nsamples = 209\nvalue = [110, 38, 61]"] ;
226 -> 639 ;
640 [label="X[8] <= -0.333\ngini = 0.499\nsamples = 144\nvalue = [43, 9, 92]"] ;
226 -> 640 ;
835 [label="gini = 0.363\nsamples = 92\nvalue = [12, 8, 72]"] ;
640 -> 835 ;
836 [label="gini = 0.496\nsamples = 52\nvalue = [31, 1, 20]"] ;
640 -> 836 ;
216 [label="X[9] <= -0.222\ngini = 0.2\nsamples = 1307\nvalue = [1163, 26, 118]"] ;
140 -> 216 ;
563 [label="X[11] <= 3.007\ngini = 0.39\nsamples = 289\nvalue = [214, 3, 72]"] ;
216 -> 563 ;
771 [label="X[10] <= -1.853\ngini = 0.472\nsamples = 202\nvalue = [129, 3, 70]"] ;
563 -> 771 ;
809 [label="gini = 0.403\nsamples = 34\nvalue = [8, 1, 25]"] ;
771 -> 809 ;
810 [label="X[8] <= -2.544\ngini = 0.409\nsamples = 168\nvalue = [121, 2, 45]"] ;
771 -> 810 ;
811 [label="X[17] <= 1.904\ngini = 0.51\nsamples = 52\nvalue = [22, 1, 29]"] ;
810 -> 811 ;
813 [label="gini = 0.333\nsamples = 25\nvalue = [20, 1, 4]"] ;
811 -> 813 ;
814 [label="gini = 0.137\nsamples = 27\nvalue = [2, 0, 25]"] ;
811 -> 814 ;
812 [label="gini = 0.253\nsamples = 116\nvalue = [99, 1, 16]"] ;
810 -> 812 ;
772 [label="gini = 0.045\nsamples = 87\nvalue = [85, 0, 2]"] ;
563 -> 772 ;
564 [label="gini = 0.128\nsamples = 1018\nvalue = [949, 23, 46]"] ;
216 -> 564 ;
16 [label="X[6] <= 0.66\ngini = 0.55\nsamples = 3419\nvalue = [1190, 291, 1938]"] ;
14 -> 16 ;
53 [label="X[12] <= 0.07\ngini = 0.48\nsamples = 2701\nvalue = [816, 120, 1765]"] ;
16 -> 53 ;
59 [label="X[2] <= 2.254\ngini = 0.335\nsamples = 1461\nvalue = [228, 65, 1168]"] ;
53 -> 59 ;
305 [label="X[17] <= 1.226\ngini = 0.457\nsamples = 791\nvalue = [195, 49, 547]"] ;
59 -> 305 ;
307 [label="X[8] <= 0.267\ngini = 0.618\nsamples = 261\nvalue = [110, 40, 111]"] ;
305 -> 307 ;
593 [label="X[16] <= -0.198\ngini = 0.622\nsamples = 169\nvalue = [85, 38, 46]"] ;
307 -> 593 ;
595 [label="gini = 0.618\nsamples = 62\nvalue = [10, 29, 23]"] ;
593 -> 595 ;
596 [label="gini = 0.455\nsamples = 107\nvalue = [75, 9, 23]"] ;
593 -> 596 ;
594 [label="gini = 0.427\nsamples = 92\nvalue = [25, 2, 65]"] ;
307 -> 594 ;
308 [label="X[1] <= -2.558\ngini = 0.297\nsamples = 530\nvalue = [85, 9, 436]"] ;
305 -> 308 ;
877 [label="gini = 0.519\nsamples = 17\nvalue = [11, 3, 3]"] ;
308 -> 877 ;
878 [label="X[12] <= -1.29\ngini = 0.267\nsamples = 513\nvalue = [74, 6, 433]"] ;
308 -> 878 ;
967 [label="gini = 0.126\nsamples = 299\nvalue = [18, 2, 279]"] ;
878 -> 967 ;
968 [label="X[10] <= -0.066\ngini = 0.413\nsamples = 214\nvalue = [56, 4, 154]"] ;
878 -> 968 ;
969 [label="gini = 0.503\nsamples = 124\nvalue = [51, 2, 71]"] ;
968 -> 969 ;
970 [label="gini = 0.146\nsamples = 90\nvalue = [5, 2, 83]"] ;
968 -> 970 ;
306 [label="gini = 0.138\nsamples = 670\nvalue = [33, 16, 621]"] ;
59 -> 306 ;
60 [label="X[16] <= 2.092\ngini = 0.541\nsamples = 1240\nvalue = [588, 55, 597]"] ;
53 -> 60 ;
81 [label="X[14] <= 2.879\ngini = 0.511\nsamples = 785\nvalue = [248, 50, 487]"] ;
60 -> 81 ;
321 [label="X[10] <= -2.26\ngini = 0.581\nsamples = 412\nvalue = [179, 39, 194]"] ;
81 -> 321 ;
443 [label="gini = 0.449\nsamples = 127\nvalue = [89, 8, 30]"] ;
321 -> 443 ;
444 [label="X[17] <= 1.999\ngini = 0.557\nsamples = 285\nvalue = [90, 31, 164]"] ;
321 -> 444 ;
487 [label="gini = 0.493\nsamples = 216\nvalue = [43, 28, 145]"] ;
444 -> 487 ;
488 [label="X[1] <= 2.698\ngini = 0.458\nsamples = 69\nvalue = [47, 3, 19]"] ;
444 -> 488 ;
871 [label="gini = 0.231\nsamples = 47\nvalue = [41, 3, 3]"] ;
488 -> 871 ;
872 [label="gini = 0.397\nsamples = 22\nvalue = [6, 0, 16]"] ;
488 -> 872 ;
322 [label="gini = 0.348\nsamples = 373\nvalue = [69, 11, 293]"] ;
81 -> 322 ;
82 [label="X[8] <= 1.706\ngini = 0.383\nsamples = 455\nvalue = [340, 5, 110]"] ;
60 -> 82 ;
203 [label="X[10] <= 1.637\ngini = 0.273\nsamples = 397\nvalue = [333, 4, 60]"] ;
82 -> 203 ;
461 [label="gini = 0.195\nsamples = 360\nvalue = [321, 4, 35]"] ;
203 -> 461 ;
462 [label="gini = 0.438\nsamples = 37\nvalue = [12, 0, 25]"] ;
203 -> 462 ;
204 [label="gini = 0.242\nsamples = 58\nvalue = [7, 1, 50]"] ;
82 -> 204 ;
54 [label="X[17] <= -0.538\ngini = 0.614\nsamples = 718\nvalue = [374, 171, 173]"] ;
16 -> 54 ;
93 [label="X[10] <= -1.992\ngini = 0.486\nsamples = 212\nvalue = [46, 143, 23]"] ;
54 -> 93 ;
401 [label="gini = 0.637\nsamples = 57\nvalue = [26, 12, 19]"] ;
93 -> 401 ;
402 [label="X[1] <= 3.502\ngini = 0.268\nsamples = 155\nvalue = [20, 131, 4]"] ;
93 -> 402 ;
741 [label="gini = 0.179\nsamples = 144\nvalue = [10, 130, 4]"] ;
402 -> 741 ;
742 [label="gini = 0.165\nsamples = 11\nvalue = [10, 1, 0]"] ;
402 -> 742 ;
94 [label="X[18] <= 1.194\ngini = 0.489\nsamples = 506\nvalue = [328, 28, 150]"] ;
54 -> 94 ;
301 [label="X[19] <= -0.887\ngini = 0.388\nsamples = 376\nvalue = [285, 21, 70]"] ;
94 -> 301 ;
701 [label="gini = 0.18\nsamples = 186\nvalue = [168, 9, 9]"] ;
301 -> 701 ;
702 [label="X[10] <= -1.398\ngini = 0.514\nsamples = 190\nvalue = [117, 12, 61]"] ;
301 -> 702 ;
703 [label="X[8] <= 0.305\ngini = 0.475\nsamples = 61\nvalue = [16, 4, 41]"] ;
702 -> 703 ;
873 [label="gini = 0.544\nsamples = 21\nvalue = [13, 4, 4]"] ;
703 -> 873 ;
874 [label="gini = 0.139\nsamples = 40\nvalue = [3, 0, 37]"] ;
703 -> 874 ;
704 [label="gini = 0.359\nsamples = 129\nvalue = [101, 8, 20]"] ;
702 -> 704 ;
302 [label="X[9] <= 1.003\ngini = 0.509\nsamples = 130\nvalue = [43, 7, 80]"] ;
94 -> 302 ;
479 [label="gini = 0.332\nsamples = 100\nvalue = [21, 0, 79]"] ;
302 -> 479 ;
480 [label="gini = 0.407\nsamples = 30\nvalue = [22, 7, 1]"] ;
302 -> 480 ;
12 [label="X[1] <= 0.349\ngini = 0.667\nsamples = 6430\nvalue = [2115, 2142, 2173]"] ;
4 -> 12 ;
21 [label="X[18] <= -0.951\ngini = 0.603\nsamples = 2821\nvalue = [1456, 913, 452]"] ;
12 -> 21 ;
87 [label="X[2] <= -2.199\ngini = 0.569\nsamples = 888\nvalue = [324, 477, 87]"] ;
21 -> 87 ;
219 [label="X[12] <= -1.244\ngini = 0.293\nsamples = 118\nvalue = [97, 21, 0]"] ;
87 -> 219 ;
549 [label="gini = 0.023\nsamples = 87\nvalue = [86, 1, 0]"] ;
219 -> 549 ;
550 [label="gini = 0.458\nsamples = 31\nvalue = [11, 20, 0]"] ;
219 -> 550 ;
220 [label="X[10] <= -1.27\ngini = 0.55\nsamples = 770\nvalue = [227, 456, 87]"] ;
87 -> 220 ;
221 [label="X[19] <= -2.189\ngini = 0.567\nsamples = 359\nvalue = [185, 144, 30]"] ;
220 -> 221 ;
355 [label="gini = 0.356\nsamples = 127\nvalue = [100, 17, 10]"] ;
221 -> 355 ;
356 [label="X[8] <= -0.724\ngini = 0.559\nsamples = 232\nvalue = [85, 127, 20]"] ;
221 -> 356 ;
635 [label="X[17] <= 0.151\ngini = 0.51\nsamples = 117\nvalue = [67, 47, 3]"] ;
356 -> 635 ;
989 [label="gini = 0.397\nsamples = 67\nvalue = [50, 14, 3]"] ;
635 -> 989 ;
990 [label="gini = 0.449\nsamples = 50\nvalue = [17, 33, 0]"] ;
635 -> 990 ;
636 [label="gini = 0.47\nsamples = 115\nvalue = [18, 80, 17]"] ;
356 -> 636 ;
222 [label="X[6] <= -1.751\ngini = 0.394\nsamples = 411\nvalue = [42, 312, 57]"] ;
220 -> 222 ;
243 [label="gini = 0.461\nsamples = 54\nvalue = [8, 8, 38]"] ;
222 -> 243 ;
244 [label="X[16] <= 2.045\ngini = 0.263\nsamples = 357\nvalue = [34, 304, 19]"] ;
222 -> 244 ;
705 [label="gini = 0.171\nsamples = 316\nvalue = [16, 287, 13]"] ;
244 -> 705 ;
706 [label="X[13] <= -1.36\ngini = 0.614\nsamples = 41\nvalue = [18, 17, 6]"] ;
244 -> 706 ;
991 [label="gini = 0.0\nsamples = 13\nvalue = [0, 13, 0]"] ;
706 -> 991 ;
992 [label="gini = 0.52\nsamples = 28\nvalue = [18, 4, 6]"] ;
706 -> 992 ;
88 [label="X[16] <= -0.031\ngini = 0.571\nsamples = 1933\nvalue = [1132, 436, 365]"] ;
21 -> 88 ;
151 [label="X[17] <= 0.997\ngini = 0.651\nsamples = 974\nvalue = [425, 268, 281]"] ;
88 -> 151 ;
191 [label="X[10] <= -1.349\ngini = 0.565\nsamples = 462\nvalue = [242, 181, 39]"] ;
151 -> 191 ;
249 [label="X[1] <= -0.66\ngini = 0.434\nsamples = 251\nvalue = [181, 50, 20]"] ;
191 -> 249 ;
765 [label="gini = 0.283\nsamples = 183\nvalue = [153, 24, 6]"] ;
249 -> 765 ;
766 [label="gini = 0.642\nsamples = 68\nvalue = [28, 26, 14]"] ;
249 -> 766 ;
250 [label="X[12] <= 1.093\ngini = 0.523\nsamples = 211\nvalue = [61, 131, 19]"] ;
191 -> 250 ;
359 [label="gini = 0.33\nsamples = 148\nvalue = [21, 119, 8]"] ;
250 -> 359 ;
360 [label="gini = 0.53\nsamples = 63\nvalue = [40, 12, 11]"] ;
250 -> 360 ;
192 [label="X[14] <= -0.075\ngini = 0.62\nsamples = 512\nvalue = [183, 87, 242]"] ;
151 -> 192 ;
269 [label="X[2] <= -0.604\ngini = 0.584\nsamples = 199\nvalue = [113, 46, 40]"] ;
192 -> 269 ;
463 [label="gini = 0.37\nsamples = 120\nvalue = [93, 8, 19]"] ;
269 -> 463 ;
464 [label="X[18] <= 2.039\ngini = 0.634\nsamples = 79\nvalue = [20, 38, 21]"] ;
269 -> 464 ;
995 [label="gini = 0.448\nsamples = 49\nvalue = [6, 35, 8]"] ;
464 -> 995 ;
996 [label="gini = 0.584\nsamples = 30\nvalue = [14, 3, 13]"] ;
464 -> 996 ;
270 [label="X[19] <= -0.483\ngini = 0.516\nsamples = 313\nvalue = [70, 41, 202]"] ;
192 -> 270 ;
357 [label="X[8] <= -1.589\ngini = 0.568\nsamples = 54\nvalue = [30, 18, 6]"] ;
270 -> 357 ;
747 [label="gini = 0.395\nsamples = 20\nvalue = [1, 15, 4]"] ;
357 -> 747 ;
748 [label="gini = 0.261\nsamples = 34\nvalue = [29, 3, 2]"] ;
357 -> 748 ;
358 [label="X[18] <= 1.861\ngini = 0.396\nsamples = 259\nvalue = [40, 23, 196]"] ;
270 -> 358 ;
869 [label="gini = 0.599\nsamples = 105\nvalue = [27, 21, 57]"] ;
358 -> 869 ;
870 [label="gini = 0.178\nsamples = 154\nvalue = [13, 2, 139]"] ;
358 -> 870 ;
152 [label="X[11] <= 1.072\ngini = 0.418\nsamples = 959\nvalue = [707, 168, 84]"] ;
88 -> 152 ;
325 [label="X[13] <= 1.206\ngini = 0.587\nsamples = 343\nvalue = [186, 107, 50]"] ;
152 -> 325 ;
505 [label="X[17] <= 0.358\ngini = 0.514\nsamples = 271\nvalue = [161, 98, 12]"] ;
325 -> 505 ;
613 [label="X[19] <= 1.31\ngini = 0.542\nsamples = 179\nvalue = [84, 87, 8]"] ;
505 -> 613 ;
977 [label="X[1] <= -2.731\ngini = 0.533\nsamples = 143\nvalue = [54, 81, 8]"] ;
613 -> 977 ;
979 [label="gini = 0.298\nsamples = 33\nvalue = [27, 6, 0]"] ;
977 -> 979 ;
980 [label="gini = 0.47\nsamples = 110\nvalue = [27, 75, 8]"] ;
977 -> 980 ;
978 [label="gini = 0.278\nsamples = 36\nvalue = [30, 6, 0]"] ;
613 -> 978 ;
614 [label="gini = 0.283\nsamples = 92\nvalue = [77, 11, 4]"] ;
505 -> 614 ;
506 [label="gini = 0.585\nsamples = 72\nvalue = [25, 9, 38]"] ;
325 -> 506 ;
326 [label="X[17] <= -2.208\ngini = 0.272\nsamples = 616\nvalue = [521, 61, 34]"] ;
152 -> 326 ;
993 [label="gini = 0.506\nsamples = 83\nvalue = [51, 28, 4]"] ;
326 -> 993 ;
994 [label="gini = 0.215\nsamples = 533\nvalue = [470, 33, 30]"] ;
326 -> 994 ;
22 [label="X[8] <= -0.831\ngini = 0.623\nsamples = 3609\nvalue = [659, 1229, 1721]"] ;
12 -> 22 ;
35 [label="X[19] <= 1.157\ngini = 0.649\nsamples = 2066\nvalue = [551, 908, 607]"] ;
22 -> 35 ;
51 [label="X[17] <= 0.788\ngini = 0.574\nsamples = 1448\nvalue = [213, 823, 412]"] ;
35 -> 51 ;
121 [label="X[1] <= 4.251\ngini = 0.492\nsamples = 887\nvalue = [168, 597, 122]"] ;
51 -> 121 ;
365 [label="X[10] <= -0.023\ngini = 0.457\nsamples = 817\nvalue = [164, 574, 79]"] ;
121 -> 365 ;
435 [label="X[16] <= 1.209\ngini = 0.55\nsamples = 432\nvalue = [134, 253, 45]"] ;
365 -> 435 ;
787 [label="X[8] <= -2.739\ngini = 0.608\nsamples = 282\nvalue = [105, 136, 41]"] ;
435 -> 787 ;
789 [label="gini = 0.515\nsamples = 144\nvalue = [83, 56, 5]"] ;
787 -> 789 ;
790 [label="X[6] <= -2.538\ngini = 0.57\nsamples = 138\nvalue = [22, 80, 36]"] ;
787 -> 790 ;
949 [label="gini = 0.355\nsamples = 19\nvalue = [2, 2, 15]"] ;
790 -> 949 ;
950 [label="gini = 0.511\nsamples = 119\nvalue = [20, 78, 21]"] ;
790 -> 950 ;
788 [label="gini = 0.354\nsamples = 150\nvalue = [29, 117, 4]"] ;
435 -> 788 ;
436 [label="X[6] <= -1.209\ngini = 0.291\nsamples = 385\nvalue = [30, 321, 34]"] ;
365 -> 436 ;
687 [label="X[2] <= 1.486\ngini = 0.537\nsamples = 72\nvalue = [4, 40, 28]"] ;
436 -> 687 ;
689 [label="gini = 0.39\nsamples = 50\nvalue = [4, 38, 8]"] ;
687 -> 689 ;
690 [label="gini = 0.165\nsamples = 22\nvalue = [0, 2, 20]"] ;
687 -> 690 ;
688 [label="gini = 0.187\nsamples = 313\nvalue = [26, 281, 6]"] ;
436 -> 688 ;
366 [label="X[18] <= -1.524\ngini = 0.511\nsamples = 70\nvalue = [4, 23, 43]"] ;
121 -> 366 ;
791 [label="gini = 0.41\nsamples = 19\nvalue = [4, 14, 1]"] ;
366 -> 791 ;
792 [label="gini = 0.291\nsamples = 51\nvalue = [0, 9, 42]"] ;
366 -> 792 ;
122 [label="X[16] <= 0.441\ngini = 0.564\nsamples = 561\nvalue = [45, 226, 290]"] ;
51 -> 122 ;
263 [label="X[12] <= -2.129\ngini = 0.466\nsamples = 349\nvalue = [18, 95, 236]"] ;
122 -> 263 ;
533 [label="gini = 0.537\nsamples = 79\nvalue = [5, 45, 29]"] ;
263 -> 533 ;
534 [label="X[18] <= -1.577\ngini = 0.376\nsamples = 270\nvalue = [13, 50, 207]"] ;
263 -> 534 ;
535 [label="gini = 0.46\nsamples = 30\nvalue = [3, 21, 6]"] ;
534 -> 535 ;
536 [label="gini = 0.282\nsamples = 240\nvalue = [10, 29, 201]"] ;
534 -> 536 ;
264 [label="X[9] <= -2.016\ngini = 0.537\nsamples = 212\nvalue = [27, 131, 54]"] ;
122 -> 264 ;
573 [label="gini = 0.508\nsamples = 38\nvalue = [7, 6, 25]"] ;
264 -> 573 ;
574 [label="X[14] <= 2.685\ngini = 0.443\nsamples = 174\nvalue = [20, 125, 29]"] ;
264 -> 574 ;
783 [label="gini = 0.342\nsamples = 149\nvalue = [17, 119, 13]"] ;
574 -> 783 ;
784 [label="gini = 0.518\nsamples = 25\nvalue = [3, 6, 16]"] ;
574 -> 784 ;
52 [label="X[17] <= 2.281\ngini = 0.582\nsamples = 618\nvalue = [338, 85, 195]"] ;
35 -> 52 ;
125 [label="X[19] <= 3.044\ngini = 0.464\nsamples = 405\nvalue = [283, 76, 46]"] ;
52 -> 125 ;
441 [label="X[15] <= 3.069\ngini = 0.606\nsamples = 225\nvalue = [118, 66, 41]"] ;
125 -> 441 ;
601 [label="X[12] <= 0.429\ngini = 0.547\nsamples = 182\nvalue = [112, 36, 34]"] ;
441 -> 601 ;
955 [label="gini = 0.437\nsamples = 130\nvalue = [93, 28, 9]"] ;
601 -> 955 ;
956 [label="gini = 0.612\nsamples = 52\nvalue = [19, 8, 25]"] ;
601 -> 956 ;
602 [label="gini = 0.467\nsamples = 43\nvalue = [6, 30, 7]"] ;
441 -> 602 ;
442 [label="gini = 0.156\nsamples = 180\nvalue = [165, 10, 5]"] ;
125 -> 442 ;
126 [label="X[14] <= 0.749\ngini = 0.442\nsamples = 213\nvalue = [55, 9, 149]"] ;
52 -> 126 ;
327 [label="gini = 0.518\nsamples = 59\nvalue = [38, 8, 13]"] ;
126 -> 327 ;
328 [label="X[19] <= 4.073\ngini = 0.208\nsamples = 154\nvalue = [17, 1, 136]"] ;
126 -> 328 ;
715 [label="gini = 0.084\nsamples = 138\nvalue = [5, 1, 132]"] ;
328 -> 715 ;
716 [label="gini = 0.375\nsamples = 16\nvalue = [12, 0, 4]"] ;
328 -> 716 ;
36 [label="X[6] <= 0.098\ngini = 0.431\nsamples = 1543\nvalue = [108, 321, 1114]"] ;
22 -> 36 ;
45 [label="X[2] <= -3.609\ngini = 0.178\nsamples = 1012\nvalue = [44, 53, 915]"] ;
36 -> 45 ;
831 [label="gini = 0.542\nsamples = 12\nvalue = [4, 7, 1]"] ;
45 -> 831 ;
832 [label="gini = 0.161\nsamples = 1000\nvalue = [40, 46, 914]"] ;
45 -> 832 ;
46 [label="X[10] <= -0.704\ngini = 0.59\nsamples = 531\nvalue = [64, 268, 199]"] ;
36 -> 46 ;
91 [label="X[19] <= 2.901\ngini = 0.545\nsamples = 275\nvalue = [51, 54, 170]"] ;
46 -> 91 ;
465 [label="X[18] <= -3.139\ngini = 0.472\nsamples = 242\nvalue = [27, 48, 167]"] ;
91 -> 465 ;
477 [label="gini = 0.476\nsamples = 38\nvalue = [4, 26, 8]"] ;
465 -> 477 ;
478 [label="X[1] <= 2.081\ngini = 0.368\nsamples = 204\nvalue = [23, 22, 159]"] ;
465 -> 478 ;
971 [label="gini = 0.6\nsamples = 79\nvalue = [17, 19, 43]"] ;
478 -> 971 ;
972 [label="gini = 0.136\nsamples = 125\nvalue = [6, 3, 116]"] ;
478 -> 972 ;
466 [label="gini = 0.43\nsamples = 33\nvalue = [24, 6, 3]"] ;
91 -> 466 ;
92 [label="gini = 0.286\nsamples = 256\nvalue = [13, 214, 29]"] ;
46 -> 92 ;
2 [label="X[12] <= 1.901\ngini = 0.613\nsamples = 30411\nvalue = [6994, 15886, 7531]"] ;
0 -> 2 [labeldistance=2.5, labelangle=-45, headlabel="False"] ;
7 [label="X[15] <= -1.17\ngini = 0.587\nsamples = 26477\nvalue = [6364, 14895, 5218]"] ;
2 -> 7 ;
9 [label="X[13] <= -0.297\ngini = 0.664\nsamples = 6966\nvalue = [2197, 2140, 2629]"] ;
7 -> 9 ;
23 [label="X[18] <= -1.29\ngini = 0.617\nsamples = 3430\nvalue = [530, 1559, 1341]"] ;
9 -> 23 ;
27 [label="X[6] <= 1.898\ngini = 0.471\nsamples = 1216\nvalue = [121, 258, 837]"] ;
23 -> 27 ;
95 [label="X[1] <= 0.941\ngini = 0.363\nsamples = 994\nvalue = [91, 125, 778]"] ;
27 -> 95 ;
131 [label="X[9] <= -4.671\ngini = 0.274\nsamples = 914\nvalue = [33, 111, 770]"] ;
95 -> 131 ;
253 [label="gini = 0.0\nsamples = 27\nvalue = [0, 27, 0]"] ;
131 -> 253 ;
254 [label="X[17] <= -2.703\ngini = 0.236\nsamples = 887\nvalue = [33, 84, 770]"] ;
131 -> 254 ;
551 [label="X[6] <= -0.213\ngini = 0.498\nsamples = 66\nvalue = [0, 31, 35]"] ;
254 -> 551 ;
581 [label="gini = 0.239\nsamples = 36\nvalue = [0, 5, 31]"] ;
551 -> 581 ;
582 [label="gini = 0.231\nsamples = 30\nvalue = [0, 26, 4]"] ;
551 -> 582 ;
552 [label="X[14] <= -1.778\ngini = 0.193\nsamples = 821\nvalue = [33, 53, 735]"] ;
254 -> 552 ;
699 [label="gini = 0.661\nsamples = 33\nvalue = [12, 9, 12]"] ;
552 -> 699 ;
700 [label="gini = 0.154\nsamples = 788\nvalue = [21, 44, 723]"] ;
552 -> 700 ;
132 [label="X[9] <= -0.534\ngini = 0.434\nsamples = 80\nvalue = [58, 14, 8]"] ;
95 -> 132 ;
841 [label="gini = 0.497\nsamples = 13\nvalue = [0, 6, 7]"] ;
132 -> 841 ;
842 [label="gini = 0.236\nsamples = 67\nvalue = [58, 8, 1]"] ;
132 -> 842 ;
96 [label="X[10] <= -1.48\ngini = 0.552\nsamples = 222\nvalue = [30, 133, 59]"] ;
27 -> 96 ;
257 [label="X[9] <= -3.725\ngini = 0.498\nsamples = 81\nvalue = [11, 16, 54]"] ;
96 -> 257 ;
829 [label="gini = 0.0\nsamples = 10\nvalue = [0, 10, 0]"] ;
257 -> 829 ;
830 [label="gini = 0.39\nsamples = 71\nvalue = [11, 6, 54]"] ;
257 -> 830 ;
258 [label="X[1] <= 2.519\ngini = 0.292\nsamples = 141\nvalue = [19, 117, 5]"] ;
96 -> 258 ;
583 [label="gini = 0.185\nsamples = 130\nvalue = [8, 117, 5]"] ;
258 -> 583 ;
584 [label="gini = 0.0\nsamples = 11\nvalue = [11, 0, 0]"] ;
258 -> 584 ;
28 [label="X[4] <= 3.431\ngini = 0.569\nsamples = 2214\nvalue = [409, 1301, 504]"] ;
23 -> 28 ;
55 [label="X[14] <= -0.976\ngini = 0.631\nsamples = 614\nvalue = [148, 167, 299]"] ;
28 -> 55 ;
193 [label="X[12] <= -0.967\ngini = 0.579\nsamples = 189\nvalue = [55, 106, 28]"] ;
55 -> 193 ;
411 [label="gini = 0.567\nsamples = 71\nvalue = [42, 15, 14]"] ;
193 -> 411 ;
412 [label="X[2] <= 0.524\ngini = 0.379\nsamples = 118\nvalue = [13, 91, 14]"] ;
193 -> 412 ;
799 [label="gini = 0.146\nsamples = 89\nvalue = [6, 82, 1]"] ;
412 -> 799 ;
800 [label="gini = 0.644\nsamples = 29\nvalue = [7, 9, 13]"] ;
412 -> 800 ;
194 [label="X[1] <= 2.283\ngini = 0.525\nsamples = 425\nvalue = [93, 61, 271]"] ;
55 -> 194 ;
197 [label="X[14] <= 0.518\ngini = 0.435\nsamples = 368\nvalue = [41, 60, 267]"] ;
194 -> 197 ;
863 [label="gini = 0.599\nsamples = 106\nvalue = [15, 37, 54]"] ;
197 -> 863 ;
864 [label="gini = 0.322\nsamples = 262\nvalue = [26, 23, 213]"] ;
197 -> 864 ;
198 [label="gini = 0.163\nsamples = 57\nvalue = [52, 1, 4]"] ;
194 -> 198 ;
56 [label="X[17] <= 1.1\ngini = 0.455\nsamples = 1600\nvalue = [261, 1134, 205]"] ;
28 -> 56 ;
111 [label="X[1] <= 1.211\ngini = 0.315\nsamples = 1190\nvalue = [130, 972, 88]"] ;
56 -> 111 ;
145 [label="X[17] <= -0.515\ngini = 0.239\nsamples = 1089\nvalue = [60, 944, 85]"] ;
111 -> 145 ;
597 [label="gini = 0.119\nsamples = 723\nvalue = [21, 678, 24]"] ;
145 -> 597 ;
598 [label="X[14] <= 1.333\ngini = 0.433\nsamples = 366\nvalue = [39, 266, 61]"] ;
145 -> 598 ;
599 [label="gini = 0.263\nsamples = 263\nvalue = [23, 224, 16]"] ;
598 -> 599 ;
600 [label="X[4] <= 11.83\ngini = 0.619\nsamples = 103\nvalue = [16, 42, 45]"] ;
598 -> 600 ;
647 [label="gini = 0.57\nsamples = 75\nvalue = [14, 17, 44]"] ;
600 -> 647 ;
648 [label="gini = 0.196\nsamples = 28\nvalue = [2, 25, 1]"] ;
600 -> 648 ;
146 [label="X[8] <= -1.365\ngini = 0.442\nsamples = 101\nvalue = [70, 28, 3]"] ;
111 -> 146 ;
691 [label="gini = 0.505\nsamples = 37\nvalue = [12, 23, 2]"] ;
146 -> 691 ;
692 [label="gini = 0.172\nsamples = 64\nvalue = [58, 5, 1]"] ;
146 -> 692 ;
112 [label="X[14] <= 1.263\ngini = 0.66\nsamples = 410\nvalue = [131, 162, 117]"] ;
56 -> 112 ;
339 [label="X[1] <= -1.879\ngini = 0.562\nsamples = 225\nvalue = [74, 127, 24]"] ;
112 -> 339 ;
343 [label="gini = 0.385\nsamples = 71\nvalue = [53, 17, 1]"] ;
339 -> 343 ;
344 [label="X[6] <= -0.262\ngini = 0.449\nsamples = 154\nvalue = [21, 110, 23]"] ;
339 -> 344 ;
579 [label="gini = 0.138\nsamples = 96\nvalue = [4, 89, 3]"] ;
344 -> 579 ;
580 [label="gini = 0.664\nsamples = 58\nvalue = [17, 21, 20]"] ;
344 -> 580 ;
340 [label="X[15] <= -2.325\ngini = 0.617\nsamples = 185\nvalue = [57, 35, 93]"] ;
112 -> 340 ;
403 [label="gini = 0.389\nsamples = 105\nvalue = [16, 9, 80]"] ;
340 -> 403 ;
404 [label="gini = 0.605\nsamples = 80\nvalue = [41, 26, 13]"] ;
340 -> 404 ;
24 [label="X[14] <= -1.902\ngini = 0.618\nsamples = 3536\nvalue = [1667, 581, 1288]"] ;
9 -> 24 ;
43 [label="X[18] <= 0.246\ngini = 0.338\nsamples = 684\nvalue = [546, 100, 38]"] ;
24 -> 43 ;
205 [label="gini = 0.172\nsamples = 540\nvalue = [490, 32, 18]"] ;
43 -> 205 ;
206 [label="X[2] <= -2.077\ngini = 0.606\nsamples = 144\nvalue = [56, 68, 20]"] ;
43 -> 206 ;
605 [label="gini = 0.227\nsamples = 46\nvalue = [6, 40, 0]"] ;
206 -> 605 ;
606 [label="gini = 0.616\nsamples = 98\nvalue = [50, 28, 20]"] ;
206 -> 606 ;
44 [label="X[2] <= -0.166\ngini = 0.625\nsamples = 2852\nvalue = [1121, 481, 1250]"] ;
24 -> 44 ;
67 [label="X[9] <= 0.973\ngini = 0.587\nsamples = 1026\nvalue = [578, 221, 227]"] ;
44 -> 67 ;
177 [label="X[11] <= -0.151\ngini = 0.652\nsamples = 677\nvalue = [289, 175, 213]"] ;
67 -> 177 ;
179 [label="X[9] <= -0.966\ngini = 0.589\nsamples = 252\nvalue = [29, 97, 126]"] ;
177 -> 179 ;
475 [label="X[19] <= 0.58\ngini = 0.508\nsamples = 168\nvalue = [18, 41, 109]"] ;
179 -> 475 ;
965 [label="gini = 0.445\nsamples = 149\nvalue = [5, 41, 103]"] ;
475 -> 965 ;
966 [label="gini = 0.432\nsamples = 19\nvalue = [13, 0, 6]"] ;
475 -> 966 ;
476 [label="X[10] <= -1.488\ngini = 0.497\nsamples = 84\nvalue = [11, 56, 17]"] ;
179 -> 476 ;
875 [label="gini = 0.165\nsamples = 11\nvalue = [1, 0, 10]"] ;
476 -> 875 ;
876 [label="gini = 0.384\nsamples = 73\nvalue = [10, 56, 7]"] ;
476 -> 876 ;
180 [label="X[8] <= -2.234\ngini = 0.55\nsamples = 425\nvalue = [260, 78, 87]"] ;
177 -> 180 ;
623 [label="gini = 0.588\nsamples = 105\nvalue = [46, 48, 11]"] ;
180 -> 623 ;
624 [label="X[19] <= -2.903\ngini = 0.488\nsamples = 320\nvalue = [214, 30, 76]"] ;
180 -> 624 ;
625 [label="X[16] <= 0.359\ngini = 0.563\nsamples = 80\nvalue = [30, 7, 43]"] ;
624 -> 625 ;
627 [label="gini = 0.226\nsamples = 24\nvalue = [21, 2, 1]"] ;
625 -> 627 ;
628 [label="gini = 0.404\nsamples = 56\nvalue = [9, 5, 42]"] ;
625 -> 628 ;
626 [label="X[19] <= 2.628\ngini = 0.384\nsamples = 240\nvalue = [184, 23, 33]"] ;
624 -> 626 ;
951 [label="gini = 0.335\nsamples = 224\nvalue = [180, 23, 21]"] ;
626 -> 951 ;
952 [label="gini = 0.375\nsamples = 16\nvalue = [4, 0, 12]"] ;
626 -> 952 ;
178 [label="X[10] <= 1.514\ngini = 0.295\nsamples = 349\nvalue = [289, 46, 14]"] ;
67 -> 178 ;
719 [label="gini = 0.154\nsamples = 255\nvalue = [234, 12, 9]"] ;
178 -> 719 ;
720 [label="X[18] <= -0.153\ngini = 0.524\nsamples = 94\nvalue = [55, 34, 5]"] ;
178 -> 720 ;
975 [label="gini = 0.224\nsamples = 40\nvalue = [35, 4, 1]"] ;
720 -> 975 ;
976 [label="gini = 0.549\nsamples = 54\nvalue = [20, 30, 4]"] ;
720 -> 976 ;
68 [label="X[16] <= 1.154\ngini = 0.577\nsamples = 1826\nvalue = [543, 260, 1023]"] ;
44 -> 68 ;
115 [label="X[19] <= 0.379\ngini = 0.657\nsamples = 795\nvalue = [303, 200, 292]"] ;
68 -> 115 ;
165 [label="X[4] <= 6.363\ngini = 0.638\nsamples = 514\nvalue = [224, 187, 103]"] ;
115 -> 165 ;
271 [label="X[13] <= 5.158\ngini = 0.586\nsamples = 352\nvalue = [199, 80, 73]"] ;
165 -> 271 ;
669 [label="X[8] <= 0.656\ngini = 0.637\nsamples = 269\nvalue = [127, 76, 66]"] ;
271 -> 669 ;
671 [label="gini = 0.65\nsamples = 142\nvalue = [42, 62, 38]"] ;
669 -> 671 ;
672 [label="gini = 0.491\nsamples = 127\nvalue = [85, 14, 28]"] ;
669 -> 672 ;
670 [label="gini = 0.238\nsamples = 83\nvalue = [72, 4, 7]"] ;
271 -> 670 ;
272 [label="X[16] <= -0.472\ngini = 0.506\nsamples = 162\nvalue = [25, 107, 30]"] ;
165 -> 272 ;
641 [label="gini = 0.314\nsamples = 115\nvalue = [13, 94, 8]"] ;
272 -> 641 ;
642 [label="gini = 0.639\nsamples = 47\nvalue = [12, 13, 22]"] ;
272 -> 642 ;
166 [label="X[6] <= 0.711\ngini = 0.466\nsamples = 281\nvalue = [79, 13, 189]"] ;
115 -> 166 ;
397 [label="gini = 0.343\nsamples = 223\nvalue = [41, 6, 176]"] ;
166 -> 397 ;
398 [label="gini = 0.506\nsamples = 58\nvalue = [38, 7, 13]"] ;
166 -> 398 ;
116 [label="X[6] <= -0.067\ngini = 0.44\nsamples = 1031\nvalue = [240, 60, 731]"] ;
68 -> 116 ;
169 [label="X[12] <= 0.191\ngini = 0.346\nsamples = 857\nvalue = [137, 42, 678]"] ;
116 -> 169 ;
265 [label="X[8] <= -2.934\ngini = 0.221\nsamples = 662\nvalue = [54, 27, 581]"] ;
169 -> 265 ;
817 [label="gini = 0.63\nsamples = 26\nvalue = [5, 12, 9]"] ;
265 -> 817 ;
818 [label="gini = 0.185\nsamples = 636\nvalue = [49, 15, 572]"] ;
265 -> 818 ;
266 [label="X[1] <= 2.037\ngini = 0.565\nsamples = 195\nvalue = [83, 15, 97]"] ;
169 -> 266 ;
555 [label="gini = 0.496\nsamples = 120\nvalue = [30, 11, 79]"] ;
266 -> 555 ;
556 [label="gini = 0.44\nsamples = 75\nvalue = [53, 4, 18]"] ;
266 -> 556 ;
170 [label="X[14] <= -0.04\ngini = 0.546\nsamples = 174\nvalue = [103, 18, 53]"] ;
116 -> 170 ;
527 [label="gini = 0.267\nsamples = 86\nvalue = [73, 5, 8]"] ;
170 -> 527 ;
528 [label="X[15] <= -2.374\ngini = 0.6\nsamples = 88\nvalue = [30, 13, 45]"] ;
170 -> 528 ;
763 [label="gini = 0.448\nsamples = 56\nvalue = [7, 9, 40]"] ;
528 -> 763 ;
764 [label="gini = 0.443\nsamples = 32\nvalue = [23, 4, 5]"] ;
528 -> 764 ;
10 [label="X[19] <= 1.935\ngini = 0.509\nsamples = 19511\nvalue = [4167, 12755, 2589]"] ;
7 -> 10 ;
29 [label="X[10] <= 0.438\ngini = 0.475\nsamples = 17197\nvalue = [3649, 11785, 1763]"] ;
10 -> 29 ;
31 [label="X[11] <= 0.821\ngini = 0.545\nsamples = 10101\nvalue = [2844, 6080, 1177]"] ;
29 -> 31 ;
33 [label="X[8] <= 0.636\ngini = 0.487\nsamples = 6561\nvalue = [1165, 4457, 939]"] ;
31 -> 33 ;
61 [label="X[9] <= -0.729\ngini = 0.405\nsamples = 4793\nvalue = [693, 3596, 504]"] ;
33 -> 61 ;
171 [label="X[19] <= 0.954\ngini = 0.302\nsamples = 2780\nvalue = [254, 2298, 228]"] ;
61 -> 171 ;
335 [label="X[1] <= -3.791\ngini = 0.257\nsamples = 2443\nvalue = [214, 2091, 138]"] ;
171 -> 335 ;
575 [label="X[9] <= -4.007\ngini = 0.498\nsamples = 49\nvalue = [26, 23, 0]"] ;
335 -> 575 ;
585 [label="gini = 0.091\nsamples = 21\nvalue = [1, 20, 0]"] ;
575 -> 585 ;
586 [label="gini = 0.191\nsamples = 28\nvalue = [25, 3, 0]"] ;
575 -> 586 ;
576 [label="X[6] <= -0.361\ngini = 0.244\nsamples = 2394\nvalue = [188, 2068, 138]"] ;
335 -> 576 ;
673 [label="gini = 0.171\nsamples = 1605\nvalue = [79, 1458, 68]"] ;
576 -> 673 ;
674 [label="X[16] <= -1.507\ngini = 0.375\nsamples = 789\nvalue = [109, 610, 70]"] ;
576 -> 674 ;
675 [label="X[12] <= -0.494\ngini = 0.63\nsamples = 59\nvalue = [12, 19, 28]"] ;
674 -> 675 ;
683 [label="gini = 0.514\nsamples = 29\nvalue = [9, 18, 2]"] ;
675 -> 683 ;
684 [label="gini = 0.238\nsamples = 30\nvalue = [3, 1, 26]"] ;
675 -> 684 ;
676 [label="X[12] <= -1.318\ngini = 0.324\nsamples = 730\nvalue = [97, 591, 42]"] ;
674 -> 676 ;
677 [label="X[15] <= 0.883\ngini = 0.475\nsamples = 270\nvalue = [78, 179, 13]"] ;
676 -> 677 ;
679 [label="X[2] <= -1.7\ngini = 0.578\nsamples = 133\nvalue = [60, 61, 12]"] ;
677 -> 679 ;
681 [label="gini = 0.354\nsamples = 56\nvalue = [9, 44, 3]"] ;
679 -> 681 ;
682 [label="gini = 0.499\nsamples = 77\nvalue = [51, 17, 9]"] ;
679 -> 682 ;
680 [label="gini = 0.241\nsamples = 137\nvalue = [18, 118, 1]"] ;
677 -> 680 ;
678 [label="X[16] <= 0.781\ngini = 0.192\nsamples = 460\nvalue = [19, 412, 29]"] ;
676 -> 678 ;
981 [label="gini = 0.477\nsamples = 118\nvalue = [14, 81, 23]"] ;
678 -> 981 ;
982 [label="gini = 0.063\nsamples = 342\nvalue = [5, 331, 6]"] ;
678 -> 982 ;
336 [label="X[3] <= 1.729\ngini = 0.537\nsamples = 337\nvalue = [40, 207, 90]"] ;
171 -> 336 ;
337 [label="X[12] <= -0.525\ngini = 0.586\nsamples = 131\nvalue = [20, 39, 72]"] ;
336 -> 337 ;
603 [label="gini = 0.595\nsamples = 51\nvalue = [13, 28, 10]"] ;
337 -> 603 ;
604 [label="gini = 0.373\nsamples = 80\nvalue = [7, 11, 62]"] ;
337 -> 604 ;
338 [label="gini = 0.318\nsamples = 206\nvalue = [20, 168, 18]"] ;
336 -> 338 ;
172 [label="X[10] <= -3.056\ngini = 0.518\nsamples = 2013\nvalue = [439, 1298, 276]"] ;
61 -> 172 ;
173 [label="X[1] <= -1.581\ngini = 0.621\nsamples = 250\nvalue = [126, 70, 54]"] ;
172 -> 173 ;
903 [label="X[14] <= -1.42\ngini = 0.525\nsamples = 123\nvalue = [69, 49, 5]"] ;
173 -> 903 ;
905 [label="gini = 0.206\nsamples = 43\nvalue = [38, 5, 0]"] ;
903 -> 905 ;
906 [label="gini = 0.543\nsamples = 80\nvalue = [31, 44, 5]"] ;
903 -> 906 ;
904 [label="gini = 0.622\nsamples = 127\nvalue = [57, 21, 49]"] ;
173 -> 904 ;
174 [label="X[15] <= 0.706\ngini = 0.467\nsamples = 1763\nvalue = [313, 1228, 222]"] ;
172 -> 174 ;
289 [label="X[1] <= 3.305\ngini = 0.593\nsamples = 713\nvalue = [179, 394, 140]"] ;
174 -> 289 ;
291 [label="X[4] <= 3.037\ngini = 0.566\nsamples = 664\nvalue = [135, 393, 136]"] ;
289 -> 291 ;
437 [label="X[6] <= 0.088\ngini = 0.653\nsamples = 259\nvalue = [63, 106, 90]"] ;
291 -> 437 ;
439 [label="X[14] <= -1.189\ngini = 0.567\nsamples = 141\nvalue = [21, 38, 82]"] ;
437 -> 439 ;
753 [label="gini = 0.417\nsamples = 27\nvalue = [3, 20, 4]"] ;
439 -> 753 ;
754 [label="gini = 0.482\nsamples = 114\nvalue = [18, 18, 78]"] ;
439 -> 754 ;
440 [label="X[14] <= -1.21\ngini = 0.537\nsamples = 118\nvalue = [42, 68, 8]"] ;
437 -> 440 ;
697 [label="gini = 0.353\nsamples = 35\nvalue = [27, 8, 0]"] ;
440 -> 697 ;
698 [label="gini = 0.435\nsamples = 83\nvalue = [15, 60, 8]"] ;
440 -> 698 ;
438 [label="X[2] <= -2.025\ngini = 0.453\nsamples = 405\nvalue = [72, 287, 46]"] ;
291 -> 438 ;
775 [label="X[18] <= -0.727\ngini = 0.553\nsamples = 107\nvalue = [44, 56, 7]"] ;
438 -> 775 ;
777 [label="gini = 0.473\nsamples = 42\nvalue = [29, 8, 5]"] ;
775 -> 777 ;
778 [label="gini = 0.4\nsamples = 65\nvalue = [15, 48, 2]"] ;
775 -> 778 ;
776 [label="gini = 0.373\nsamples = 298\nvalue = [28, 231, 39]"] ;
438 -> 776 ;
292 [label="gini = 0.187\nsamples = 49\nvalue = [44, 1, 4]"] ;
289 -> 292 ;
290 [label="X[2] <= -2.879\ngini = 0.347\nsamples = 1050\nvalue = [134, 834, 82]"] ;
174 -> 290 ;
823 [label="X[6] <= 2.123\ngini = 0.514\nsamples = 106\nvalue = [40, 62, 4]"] ;
290 -> 823 ;
825 [label="gini = 0.435\nsamples = 86\nvalue = [21, 61, 4]"] ;
823 -> 825 ;
826 [label="gini = 0.095\nsamples = 20\nvalue = [19, 1, 0]"] ;
823 -> 826 ;
824 [label="X[17] <= -0.97\ngini = 0.314\nsamples = 944\nvalue = [94, 772, 78]"] ;
290 -> 824 ;
893 [label="X[1] <= 2.487\ngini = 0.537\nsamples = 168\nvalue = [37, 105, 26]"] ;
824 -> 893 ;
895 [label="gini = 0.487\nsamples = 153\nvalue = [24, 104, 25]"] ;
893 -> 895 ;
896 [label="gini = 0.24\nsamples = 15\nvalue = [13, 1, 1]"] ;
893 -> 896 ;
894 [label="gini = 0.251\nsamples = 776\nvalue = [57, 667, 52]"] ;
824 -> 894 ;
62 [label="X[14] <= 0.619\ngini = 0.631\nsamples = 1768\nvalue = [472, 861, 435]"] ;
33 -> 62 ;
127 [label="X[2] <= 0.222\ngini = 0.56\nsamples = 1233\nvalue = [266, 739, 228]"] ;
62 -> 127 ;
141 [label="X[1] <= -3.989\ngini = 0.369\nsamples = 670\nvalue = [95, 521, 54]"] ;
127 -> 141 ;
389 [label="gini = 0.453\nsamples = 52\nvalue = [34, 18, 0]"] ;
141 -> 389 ;
390 [label="X[19] <= -3.654\ngini = 0.32\nsamples = 618\nvalue = [61, 503, 54]"] ;
141 -> 390 ;
391 [label="gini = 0.479\nsamples = 32\nvalue = [5, 5, 22]"] ;
390 -> 391 ;
392 [label="X[11] <= -0.9\ngini = 0.266\nsamples = 586\nvalue = [56, 498, 32]"] ;
390 -> 392 ;
931 [label="gini = 0.18\nsamples = 453\nvalue = [19, 409, 25]"] ;
392 -> 931 ;
932 [label="X[6] <= -0.073\ngini = 0.472\nsamples = 133\nvalue = [37, 89, 7]"] ;
392 -> 932 ;
933 [label="gini = 0.547\nsamples = 43\nvalue = [25, 14, 4]"] ;
932 -> 933 ;
934 [label="gini = 0.287\nsamples = 90\nvalue = [12, 75, 3]"] ;
932 -> 934 ;
142 [label="X[1] <= -1.962\ngini = 0.662\nsamples = 563\nvalue = [171, 218, 174]"] ;
127 -> 142 ;
293 [label="X[10] <= -2.101\ngini = 0.581\nsamples = 258\nvalue = [124, 109, 25]"] ;
142 -> 293 ;
393 [label="gini = 0.424\nsamples = 127\nvalue = [92, 28, 7]"] ;
293 -> 393 ;
394 [label="X[12] <= -1.403\ngini = 0.539\nsamples = 131\nvalue = [32, 81, 18]"] ;
293 -> 394 ;
413 [label="gini = 0.189\nsamples = 78\nvalue = [3, 70, 5]"] ;
394 -> 413 ;
414 [label="X[18] <= -2.18\ngini = 0.597\nsamples = 53\nvalue = [29, 11, 13]"] ;
394 -> 414 ;
819 [label="gini = 0.375\nsamples = 16\nvalue = [0, 4, 12]"] ;
414 -> 819 ;
820 [label="gini = 0.349\nsamples = 37\nvalue = [29, 7, 1]"] ;
414 -> 820 ;
294 [label="X[6] <= 0.2\ngini = 0.61\nsamples = 305\nvalue = [47, 109, 149]"] ;
142 -> 294 ;
315 [label="gini = 0.46\nsamples = 178\nvalue = [20, 33, 125]"] ;
294 -> 315 ;
316 [label="X[15] <= 1.241\ngini = 0.561\nsamples = 127\nvalue = [27, 76, 24]"] ;
294 -> 316 ;
785 [label="gini = 0.658\nsamples = 54\nvalue = [22, 16, 16]"] ;
316 -> 785 ;
786 [label="gini = 0.308\nsamples = 73\nvalue = [5, 60, 8]"] ;
316 -> 786 ;
128 [label="X[4] <= -0.118\ngini = 0.65\nsamples = 535\nvalue = [206, 122, 207]"] ;
62 -> 128 ;
201 [label="X[6] <= 1.186\ngini = 0.51\nsamples = 233\nvalue = [37, 43, 153]"] ;
128 -> 201 ;
367 [label="gini = 0.343\nsamples = 182\nvalue = [24, 13, 145]"] ;
201 -> 367 ;
368 [label="gini = 0.564\nsamples = 51\nvalue = [13, 30, 8]"] ;
201 -> 368 ;
202 [label="X[8] <= 2.84\ngini = 0.586\nsamples = 302\nvalue = [169, 79, 54]"] ;
128 -> 202 ;
897 [label="X[14] <= 2.271\ngini = 0.628\nsamples = 238\nvalue = [114, 76, 48]"] ;
202 -> 897 ;
899 [label="gini = 0.621\nsamples = 142\nvalue = [52, 66, 24]"] ;
897 -> 899 ;
900 [label="X[2] <= 0.529\ngini = 0.51\nsamples = 96\nvalue = [62, 10, 24]"] ;
897 -> 900 ;
953 [label="gini = 0.311\nsamples = 70\nvalue = [57, 2, 11]"] ;
900 -> 953 ;
954 [label="gini = 0.618\nsamples = 26\nvalue = [5, 8, 13]"] ;
900 -> 954 ;
898 [label="gini = 0.25\nsamples = 64\nvalue = [55, 3, 6]"] ;
202 -> 898 ;
34 [label="X[8] <= -0.153\ngini = 0.56\nsamples = 3540\nvalue = [1679, 1623, 238]"] ;
31 -> 34 ;
99 [label="X[13] <= 1.257\ngini = 0.525\nsamples = 2294\nvalue = [945, 1265, 84]"] ;
34 -> 99 ;
181 [label="X[12] <= -1.622\ngini = 0.484\nsamples = 1592\nvalue = [546, 1004, 42]"] ;
99 -> 181 ;
383 [label="X[16] <= -0.998\ngini = 0.516\nsamples = 660\nvalue = [299, 348, 13]"] ;
181 -> 383 ;
385 [label="X[2] <= -2.582\ngini = 0.307\nsamples = 202\nvalue = [37, 164, 1]"] ;
383 -> 385 ;
559 [label="gini = 0.393\nsamples = 26\nvalue = [19, 7, 0]"] ;
385 -> 559 ;
560 [label="X[9] <= -2.622\ngini = 0.194\nsamples = 176\nvalue = [18, 157, 1]"] ;
385 -> 560 ;
939 [label="gini = 0.408\nsamples = 14\nvalue = [10, 4, 0]"] ;
560 -> 939 ;
940 [label="gini = 0.106\nsamples = 162\nvalue = [8, 153, 1]"] ;
560 -> 940 ;
386 [label="X[18] <= 1.243\ngini = 0.511\nsamples = 458\nvalue = [262, 184, 12]"] ;
383 -> 386 ;
387 [label="X[15] <= 3.681\ngini = 0.446\nsamples = 329\nvalue = [226, 94, 9]"] ;
386 -> 387 ;
889 [label="gini = 0.417\nsamples = 308\nvalue = [222, 77, 9]"] ;
387 -> 889 ;
890 [label="gini = 0.308\nsamples = 21\nvalue = [4, 17, 0]"] ;
387 -> 890 ;
388 [label="X[1] <= -0.457\ngini = 0.435\nsamples = 129\nvalue = [36, 90, 3]"] ;
386 -> 388 ;
587 [label="gini = 0.431\nsamples = 34\nvalue = [24, 9, 1]"] ;
388 -> 587 ;
588 [label="gini = 0.257\nsamples = 95\nvalue = [12, 81, 2]"] ;
388 -> 588 ;
384 [label="X[16] <= 2.546\ngini = 0.433\nsamples = 932\nvalue = [247, 656, 29]"] ;
181 -> 384 ;
725 [label="X[4] <= 0.76\ngini = 0.478\nsamples = 709\nvalue = [220, 462, 27]"] ;
384 -> 725 ;
727 [label="X[1] <= -0.968\ngini = 0.521\nsamples = 145\nvalue = [81, 59, 5]"] ;
725 -> 727 ;
759 [label="gini = 0.275\nsamples = 56\nvalue = [47, 8, 1]"] ;
727 -> 759 ;
760 [label="gini = 0.524\nsamples = 89\nvalue = [34, 51, 4]"] ;
727 -> 760 ;
728 [label="X[9] <= -1.402\ngini = 0.427\nsamples = 564\nvalue = [139, 403, 22]"] ;
725 -> 728 ;
729 [label="gini = 0.519\nsamples = 138\nvalue = [72, 63, 3]"] ;
728 -> 729 ;
730 [label="X[14] <= 0.482\ngini = 0.336\nsamples = 426\nvalue = [67, 340, 19]"] ;
728 -> 730 ;
915 [label="gini = 0.483\nsamples = 86\nvalue = [35, 51, 0]"] ;
730 -> 915 ;
916 [label="X[1] <= 1.068\ngini = 0.266\nsamples = 340\nvalue = [32, 289, 19]"] ;
730 -> 916 ;
917 [label="gini = 0.171\nsamples = 301\nvalue = [24, 273, 4]"] ;
916 -> 917 ;
918 [label="gini = 0.642\nsamples = 39\nvalue = [8, 16, 15]"] ;
916 -> 918 ;
726 [label="X[14] <= 0.685\ngini = 0.228\nsamples = 223\nvalue = [27, 194, 2]"] ;
384 -> 726 ;
855 [label="gini = 0.131\nsamples = 199\nvalue = [13, 185, 1]"] ;
726 -> 855 ;
856 [label="gini = 0.517\nsamples = 24\nvalue = [14, 9, 1]"] ;
726 -> 856 ;
182 [label="X[15] <= 2.209\ngini = 0.535\nsamples = 702\nvalue = [399, 261, 42]"] ;
99 -> 182 ;
207 [label="X[18] <= -0.358\ngini = 0.476\nsamples = 568\nvalue = [377, 161, 30]"] ;
182 -> 207 ;
483 [label="X[16] <= -2.827\ngini = 0.349\nsamples = 328\nvalue = [258, 58, 12]"] ;
207 -> 483 ;
739 [label="gini = 0.426\nsamples = 26\nvalue = [8, 18, 0]"] ;
483 -> 739 ;
740 [label="gini = 0.296\nsamples = 302\nvalue = [250, 40, 12]"] ;
483 -> 740 ;
484 [label="X[8] <= -2.518\ngini = 0.564\nsamples = 240\nvalue = [119, 103, 18]"] ;
207 -> 484 ;
485 [label="gini = 0.426\nsamples = 94\nvalue = [24, 67, 3]"] ;
484 -> 485 ;
486 [label="X[16] <= -1.921\ngini = 0.505\nsamples = 146\nvalue = [95, 36, 15]"] ;
484 -> 486 ;
769 [label="gini = 0.581\nsamples = 35\nvalue = [8, 20, 7]"] ;
486 -> 769 ;
770 [label="gini = 0.36\nsamples = 111\nvalue = [87, 16, 8]"] ;
486 -> 770 ;
208 [label="gini = 0.408\nsamples = 134\nvalue = [22, 100, 12]"] ;
182 -> 208 ;
100 [label="X[16] <= -0.751\ngini = 0.555\nsamples = 1246\nvalue = [734, 358, 154]"] ;
34 -> 100 ;
123 [label="X[1] <= 1.11\ngini = 0.614\nsamples = 522\nvalue = [191, 249, 82]"] ;
100 -> 123 ;
153 [label="X[6] <= -0.355\ngini = 0.479\nsamples = 393\nvalue = [141, 246, 6]"] ;
123 -> 153 ;
211 [label="X[16] <= -2.033\ngini = 0.468\nsamples = 162\nvalue = [106, 52, 4]"] ;
153 -> 211 ;
883 [label="X[2] <= -0.283\ngini = 0.537\nsamples = 99\nvalue = [49, 46, 4]"] ;
211 -> 883 ;
885 [label="gini = 0.219\nsamples = 33\nvalue = [29, 3, 1]"] ;
883 -> 885 ;
886 [label="gini = 0.482\nsamples = 66\nvalue = [20, 43, 3]"] ;
883 -> 886 ;
884 [label="gini = 0.172\nsamples = 63\nvalue = [57, 6, 0]"] ;
211 -> 884 ;
212 [label="X[2] <= -1.022\ngini = 0.272\nsamples = 231\nvalue = [35, 194, 2]"] ;
153 -> 212 ;
433 [label="gini = 0.346\nsamples = 27\nvalue = [21, 6, 0]"] ;
212 -> 433 ;
434 [label="gini = 0.146\nsamples = 204\nvalue = [14, 188, 2]"] ;
212 -> 434 ;
154 [label="X[12] <= -1.353\ngini = 0.502\nsamples = 129\nvalue = [50, 3, 76]"] ;
123 -> 154 ;
405 [label="gini = 0.273\nsamples = 43\nvalue = [36, 0, 7]"] ;
154 -> 405 ;
406 [label="gini = 0.329\nsamples = 86\nvalue = [14, 3, 69]"] ;
154 -> 406 ;
124 [label="X[6] <= 1.581\ngini = 0.405\nsamples = 724\nvalue = [543, 109, 72]"] ;
100 -> 124 ;
345 [label="X[1] <= -0.171\ngini = 0.322\nsamples = 568\nvalue = [461, 38, 69]"] ;
124 -> 345 ;
425 [label="gini = 0.192\nsamples = 432\nvalue = [387, 26, 19]"] ;
345 -> 425 ;
426 [label="X[16] <= 2.696\ngini = 0.561\nsamples = 136\nvalue = [74, 12, 50]"] ;
345 -> 426 ;
631 [label="gini = 0.424\nsamples = 96\nvalue = [69, 4, 23]"] ;
426 -> 631 ;
632 [label="gini = 0.489\nsamples = 40\nvalue = [5, 8, 27]"] ;
426 -> 632 ;
346 [label="X[17] <= 0.582\ngini = 0.516\nsamples = 156\nvalue = [82, 71, 3]"] ;
124 -> 346 ;
369 [label="gini = 0.288\nsamples = 63\nvalue = [11, 52, 0]"] ;
346 -> 369 ;
370 [label="gini = 0.374\nsamples = 93\nvalue = [71, 19, 3]"] ;
346 -> 370 ;
32 [label="X[6] <= -1.881\ngini = 0.334\nsamples = 7096\nvalue = [805, 5705, 586]"] ;
29 -> 32 ;
49 [label="X[4] <= -0.736\ngini = 0.587\nsamples = 1184\nvalue = [176, 646, 362]"] ;
32 -> 49 ;
73 [label="X[17] <= 1.481\ngini = 0.457\nsamples = 331\nvalue = [18, 85, 228]"] ;
49 -> 73 ;
137 [label="gini = 0.145\nsamples = 221\nvalue = [11, 6, 204]"] ;
73 -> 137 ;
138 [label="X[1] <= 1.592\ngini = 0.433\nsamples = 110\nvalue = [7, 79, 24]"] ;
73 -> 138 ;
589 [label="gini = 0.444\nsamples = 18\nvalue = [6, 0, 12]"] ;
138 -> 589 ;
590 [label="gini = 0.246\nsamples = 92\nvalue = [1, 79, 12]"] ;
138 -> 590 ;
74 [label="X[16] <= 1.522\ngini = 0.508\nsamples = 853\nvalue = [158, 561, 134]"] ;
49 -> 74 ;
309 [label="X[12] <= -0.155\ngini = 0.413\nsamples = 664\nvalue = [98, 494, 72]"] ;
74 -> 309 ;
501 [label="X[11] <= 1.258\ngini = 0.309\nsamples = 513\nvalue = [59, 421, 33]"] ;
309 -> 501 ;
731 [label="gini = 0.224\nsamples = 404\nvalue = [20, 354, 30]"] ;
501 -> 731 ;
732 [label="X[16] <= -2.687\ngini = 0.493\nsamples = 109\nvalue = [39, 67, 3]"] ;
501 -> 732 ;
733 [label="gini = 0.142\nsamples = 53\nvalue = [3, 49, 1]"] ;
732 -> 733 ;
734 [label="gini = 0.482\nsamples = 56\nvalue = [36, 18, 2]"] ;
732 -> 734 ;
502 [label="X[19] <= -1.223\ngini = 0.633\nsamples = 151\nvalue = [39, 73, 39]"] ;
309 -> 502 ;
503 [label="gini = 0.348\nsamples = 81\nvalue = [13, 64, 4]"] ;
502 -> 503 ;
504 [label="X[9] <= -2.398\ngini = 0.596\nsamples = 70\nvalue = [26, 9, 35]"] ;
502 -> 504 ;
997 [label="gini = 0.0\nsamples = 13\nvalue = [13, 0, 0]"] ;
504 -> 997 ;
998 [label="gini = 0.546\nsamples = 57\nvalue = [13, 9, 35]"] ;
504 -> 998 ;
310 [label="X[2] <= -0.297\ngini = 0.666\nsamples = 189\nvalue = [60, 67, 62]"] ;
74 -> 310 ;
311 [label="X[1] <= 2.309\ngini = 0.554\nsamples = 119\nvalue = [49, 62, 8]"] ;
310 -> 311 ;
363 [label="gini = 0.399\nsamples = 60\nvalue = [45, 11, 4]"] ;
311 -> 363 ;
364 [label="gini = 0.244\nsamples = 59\nvalue = [4, 51, 4]"] ;
311 -> 364 ;
312 [label="gini = 0.375\nsamples = 70\nvalue = [11, 5, 54]"] ;
310 -> 312 ;
50 [label="X[9] <= -2.695\ngini = 0.255\nsamples = 5912\nvalue = [629, 5059, 224]"] ;
32 -> 50 ;
133 [label="X[2] <= 2.425\ngini = 0.612\nsamples = 349\nvalue = [120, 172, 57]"] ;
50 -> 133 ;
223 [label="X[11] <= 1.261\ngini = 0.602\nsamples = 213\nvalue = [114, 58, 41]"] ;
133 -> 223 ;
329 [label="X[18] <= -0.335\ngini = 0.647\nsamples = 107\nvalue = [24, 45, 38]"] ;
223 -> 329 ;
521 [label="gini = 0.437\nsamples = 58\nvalue = [9, 42, 7]"] ;
329 -> 521 ;
522 [label="gini = 0.502\nsamples = 49\nvalue = [15, 3, 31]"] ;
329 -> 522 ;
330 [label="gini = 0.263\nsamples = 106\nvalue = [90, 13, 3]"] ;
223 -> 330 ;
224 [label="X[16] <= -0.335\ngini = 0.282\nsamples = 136\nvalue = [6, 114, 16]"] ;
133 -> 224 ;
607 [label="gini = 0.068\nsamples = 113\nvalue = [0, 109, 4]"] ;
224 -> 607 ;
608 [label="gini = 0.612\nsamples = 23\nvalue = [6, 5, 12]"] ;
224 -> 608 ;
134 [label="X[2] <= -1.274\ngini = 0.219\nsamples = 5563\nvalue = [509, 4887, 167]"] ;
50 -> 134 ;
187 [label="X[12] <= -4.43\ngini = 0.4\nsamples = 1262\nvalue = [273, 937, 52]"] ;
134 -> 187 ;
373 [label="X[17] <= 4.802\ngini = 0.448\nsamples = 71\nvalue = [47, 24, 0]"] ;
187 -> 373 ;
879 [label="gini = 0.298\nsamples = 55\nvalue = [45, 10, 0]"] ;
373 -> 879 ;
880 [label="gini = 0.219\nsamples = 16\nvalue = [2, 14, 0]"] ;
373 -> 880 ;
374 [label="X[3] <= 1.888\ngini = 0.374\nsamples = 1191\nvalue = [226, 913, 52]"] ;
187 -> 374 ;
491 [label="X[4] <= 0.295\ngini = 0.461\nsamples = 695\nvalue = [182, 475, 38]"] ;
374 -> 491 ;
493 [label="gini = 0.121\nsamples = 156\nvalue = [8, 146, 2]"] ;
491 -> 493 ;
494 [label="X[17] <= -1.994\ngini = 0.519\nsamples = 539\nvalue = [174, 329, 36]"] ;
491 -> 494 ;
833 [label="gini = 0.169\nsamples = 75\nvalue = [7, 68, 0]"] ;
494 -> 833 ;
834 [label="X[15] <= 4.712\ngini = 0.548\nsamples = 464\nvalue = [167, 261, 36]"] ;
494 -> 834 ;
963 [label="gini = 0.53\nsamples = 450\nvalue = [167, 258, 25]"] ;
834 -> 963 ;
964 [label="gini = 0.337\nsamples = 14\nvalue = [0, 3, 11]"] ;
834 -> 964 ;
492 [label="gini = 0.212\nsamples = 496\nvalue = [44, 438, 14]"] ;
374 -> 492 ;
188 [label="X[16] <= 2.403\ngini = 0.153\nsamples = 4301\nvalue = [236, 3950, 115]"] ;
134 -> 188 ;
235 [label="X[12] <= 0.666\ngini = 0.108\nsamples = 3894\nvalue = [131, 3675, 88]"] ;
188 -> 235 ;
539 [label="gini = 0.064\nsamples = 3328\nvalue = [71, 3218, 39]"] ;
235 -> 539 ;
540 [label="X[19] <= -0.362\ngini = 0.329\nsamples = 566\nvalue = [60, 457, 49]"] ;
235 -> 540 ;
541 [label="gini = 0.125\nsamples = 397\nvalue = [13, 371, 13]"] ;
540 -> 541 ;
542 [label="X[6] <= 2.315\ngini = 0.618\nsamples = 169\nvalue = [47, 86, 36]"] ;
540 -> 542 ;
707 [label="X[11] <= 1.348\ngini = 0.666\nsamples = 112\nvalue = [38, 38, 36]"] ;
542 -> 707 ;
795 [label="X[8] <= 0.695\ngini = 0.592\nsamples = 66\nvalue = [8, 25, 33]"] ;
707 -> 795 ;
797 [label="gini = 0.391\nsamples = 42\nvalue = [5, 5, 32]"] ;
795 -> 797 ;
798 [label="gini = 0.288\nsamples = 24\nvalue = [3, 20, 1]"] ;
795 -> 798 ;
796 [label="gini = 0.491\nsamples = 46\nvalue = [30, 13, 3]"] ;
707 -> 796 ;
708 [label="gini = 0.266\nsamples = 57\nvalue = [9, 48, 0]"] ;
542 -> 708 ;
236 [label="X[15] <= 0.569\ngini = 0.473\nsamples = 407\nvalue = [105, 275, 27]"] ;
188 -> 236 ;
241 [label="X[11] <= 1.788\ngini = 0.601\nsamples = 172\nvalue = [84, 65, 23]"] ;
236 -> 241 ;
523 [label="X[6] <= -0.86\ngini = 0.606\nsamples = 118\nvalue = [37, 61, 20]"] ;
241 -> 523 ;
929 [label="gini = 0.58\nsamples = 30\nvalue = [8, 5, 17]"] ;
523 -> 929 ;
930 [label="gini = 0.485\nsamples = 88\nvalue = [29, 56, 3]"] ;
523 -> 930 ;
524 [label="gini = 0.234\nsamples = 54\nvalue = [47, 4, 3]"] ;
241 -> 524 ;
242 [label="gini = 0.193\nsamples = 235\nvalue = [21, 210, 4]"] ;
236 -> 242 ;
30 [label="X[14] <= -0.239\ngini = 0.647\nsamples = 2314\nvalue = [518, 970, 826]"] ;
10 -> 30 ;
41 [label="X[1] <= 1.084\ngini = 0.525\nsamples = 1097\nvalue = [225, 701, 171]"] ;
30 -> 41 ;
159 [label="X[8] <= 0.525\ngini = 0.637\nsamples = 636\nvalue = [186, 299, 151]"] ;
41 -> 159 ;
233 [label="X[11] <= -1.432\ngini = 0.664\nsamples = 444\nvalue = [166, 145, 133]"] ;
159 -> 233 ;
277 [label="X[9] <= -2.417\ngini = 0.538\nsamples = 156\nvalue = [36, 23, 97]"] ;
233 -> 277 ;
891 [label="gini = 0.225\nsamples = 63\nvalue = [1, 7, 55]"] ;
277 -> 891 ;
892 [label="X[14] <= -2.878\ngini = 0.625\nsamples = 93\nvalue = [35, 16, 42]"] ;
277 -> 892 ;
973 [label="gini = 0.37\nsamples = 27\nvalue = [21, 3, 3]"] ;
892 -> 973 ;
974 [label="gini = 0.567\nsamples = 66\nvalue = [14, 13, 39]"] ;
892 -> 974 ;
278 [label="X[10] <= -1.094\ngini = 0.601\nsamples = 288\nvalue = [130, 122, 36]"] ;
233 -> 278 ;
279 [label="X[14] <= -1.451\ngini = 0.427\nsamples = 145\nvalue = [25, 106, 14]"] ;
278 -> 279 ;
661 [label="X[2] <= 1.985\ngini = 0.233\nsamples = 114\nvalue = [13, 99, 2]"] ;
279 -> 661 ;
779 [label="gini = 0.125\nsamples = 106\nvalue = [5, 99, 2]"] ;
661 -> 779 ;
780 [label="gini = 0.0\nsamples = 8\nvalue = [8, 0, 0]"] ;
661 -> 780 ;
662 [label="gini = 0.649\nsamples = 31\nvalue = [12, 7, 12]"] ;
279 -> 662 ;
280 [label="X[16] <= -1.369\ngini = 0.425\nsamples = 143\nvalue = [105, 16, 22]"] ;
278 -> 280 ;
565 [label="gini = 0.624\nsamples = 31\nvalue = [6, 10, 15]"] ;
280 -> 565 ;
566 [label="gini = 0.212\nsamples = 112\nvalue = [99, 6, 7]"] ;
280 -> 566 ;
234 [label="X[15] <= -0.275\ngini = 0.337\nsamples = 192\nvalue = [20, 154, 18]"] ;
159 -> 234 ;
937 [label="gini = 0.654\nsamples = 26\nvalue = [11, 8, 7]"] ;
234 -> 937 ;
938 [label="gini = 0.219\nsamples = 166\nvalue = [9, 146, 11]"] ;
234 -> 938 ;
160 [label="X[12] <= 0.53\ngini = 0.231\nsamples = 461\nvalue = [39, 402, 20]"] ;
41 -> 160 ;
637 [label="gini = 0.128\nsamples = 398\nvalue = [20, 371, 7]"] ;
160 -> 637 ;
638 [label="gini = 0.624\nsamples = 63\nvalue = [19, 31, 13]"] ;
160 -> 638 ;
42 [label="X[9] <= 0.154\ngini = 0.604\nsamples = 1217\nvalue = [293, 269, 655]"] ;
30 -> 42 ;
77 [label="X[17] <= -0.387\ngini = 0.45\nsamples = 783\nvalue = [160, 69, 554]"] ;
42 -> 77 ;
227 [label="X[2] <= 1.902\ngini = 0.571\nsamples = 84\nvalue = [48, 24, 12]"] ;
77 -> 227 ;
921 [label="gini = 0.388\nsamples = 59\nvalue = [45, 9, 5]"] ;
227 -> 921 ;
922 [label="gini = 0.547\nsamples = 25\nvalue = [3, 15, 7]"] ;
227 -> 922 ;
228 [label="X[16] <= -1.645\ngini = 0.369\nsamples = 699\nvalue = [112, 45, 542]"] ;
77 -> 228 ;
371 [label="gini = 0.146\nsamples = 362\nvalue = [15, 13, 334]"] ;
228 -> 371 ;
372 [label="X[3] <= 2.791\ngini = 0.527\nsamples = 337\nvalue = [97, 32, 208]"] ;
228 -> 372 ;
655 [label="X[11] <= 2.883\ngini = 0.464\nsamples = 286\nvalue = [68, 21, 197]"] ;
372 -> 655 ;
735 [label="gini = 0.41\nsamples = 256\nvalue = [47, 19, 190]"] ;
655 -> 735 ;
736 [label="gini = 0.451\nsamples = 30\nvalue = [21, 2, 7]"] ;
655 -> 736 ;
656 [label="gini = 0.584\nsamples = 51\nvalue = [29, 11, 11]"] ;
372 -> 656 ;
78 [label="X[6] <= -0.491\ngini = 0.64\nsamples = 434\nvalue = [133, 200, 101]"] ;
42 -> 78 ;
157 [label="gini = 0.448\nsamples = 126\nvalue = [20, 16, 90]"] ;
78 -> 157 ;
158 [label="X[1] <= -0.244\ngini = 0.507\nsamples = 308\nvalue = [113, 184, 11]"] ;
78 -> 158 ;
255 [label="X[17] <= 2.703\ngini = 0.309\nsamples = 180\nvalue = [27, 147, 6]"] ;
158 -> 255 ;
821 [label="gini = 0.199\nsamples = 156\nvalue = [12, 139, 5]"] ;
255 -> 821 ;
822 [label="gini = 0.497\nsamples = 24\nvalue = [15, 8, 1]"] ;
255 -> 822 ;
256 [label="X[10] <= 3.019\ngini = 0.464\nsamples = 128\nvalue = [86, 37, 5]"] ;
158 -> 256 ;
557 [label="gini = 0.342\nsamples = 106\nvalue = [84, 18, 4]"] ;
256 -> 557 ;
558 [label="gini = 0.244\nsamples = 22\nvalue = [2, 19, 1]"] ;
256 -> 558 ;
8 [label="X[19] <= -1.528\ngini = 0.565\nsamples = 3934\nvalue = [630, 991, 2313]"] ;
2 -> 8 ;
19 [label="X[1] <= 3.157\ngini = 0.514\nsamples = 881\nvalue = [134, 574, 173]"] ;
8 -> 19 ;
97 [label="X[8] <= 1.097\ngini = 0.417\nsamples = 764\nvalue = [114, 566, 84]"] ;
19 -> 97 ;
199 [label="X[6] <= -4.225\ngini = 0.268\nsamples = 603\nvalue = [43, 512, 48]"] ;
97 -> 199 ;
469 [label="gini = 0.308\nsamples = 21\nvalue = [17, 4, 0]"] ;
199 -> 469 ;
470 [label="X[11] <= -3.942\ngini = 0.229\nsamples = 582\nvalue = [26, 508, 48]"] ;
199 -> 470 ;
619 [label="gini = 0.153\nsamples = 12\nvalue = [0, 1, 11]"] ;
470 -> 619 ;
620 [label="gini = 0.203\nsamples = 570\nvalue = [26, 507, 37]"] ;
470 -> 620 ;
200 [label="X[11] <= 1.285\ngini = 0.643\nsamples = 161\nvalue = [71, 54, 36]"] ;
97 -> 200 ;
513 [label="X[6] <= 0.201\ngini = 0.633\nsamples = 96\nvalue = [20, 45, 31]"] ;
200 -> 513 ;
685 [label="gini = 0.614\nsamples = 50\nvalue = [18, 8, 24]"] ;
513 -> 685 ;
686 [label="gini = 0.328\nsamples = 46\nvalue = [2, 37, 7]"] ;
513 -> 686 ;
514 [label="gini = 0.359\nsamples = 65\nvalue = [51, 9, 5]"] ;
200 -> 514 ;
98 [label="X[15] <= -0.534\ngini = 0.387\nsamples = 117\nvalue = [20, 8, 89]"] ;
19 -> 98 ;
399 [label="gini = 0.302\nsamples = 23\nvalue = [19, 2, 2]"] ;
98 -> 399 ;
400 [label="gini = 0.139\nsamples = 94\nvalue = [1, 6, 87]"] ;
98 -> 400 ;
20 [label="X[16] <= 1.039\ngini = 0.464\nsamples = 3053\nvalue = [496, 417, 2140]"] ;
8 -> 20 ;
47 [label="X[11] <= 0.817\ngini = 0.337\nsamples = 2390\nvalue = [307, 169, 1914]"] ;
20 -> 47 ;
117 [label="X[12] <= 2.908\ngini = 0.226\nsamples = 1878\nvalue = [137, 97, 1644]"] ;
47 -> 117 ;
467 [label="X[9] <= 0.114\ngini = 0.387\nsamples = 718\nvalue = [95, 74, 549]"] ;
117 -> 467 ;
611 [label="gini = 0.282\nsamples = 524\nvalue = [50, 34, 440]"] ;
467 -> 611 ;
612 [label="X[14] <= 2.279\ngini = 0.588\nsamples = 194\nvalue = [45, 40, 109]"] ;
467 -> 612 ;
717 [label="gini = 0.665\nsamples = 111\nvalue = [36, 34, 41]"] ;
612 -> 717 ;
718 [label="gini = 0.312\nsamples = 83\nvalue = [9, 6, 68]"] ;
612 -> 718 ;
468 [label="gini = 0.107\nsamples = 1160\nvalue = [42, 23, 1095]"] ;
117 -> 468 ;
118 [label="X[1] <= 1.484\ngini = 0.592\nsamples = 512\nvalue = [170, 72, 270]"] ;
47 -> 118 ;
119 [label="X[17] <= -0.953\ngini = 0.598\nsamples = 243\nvalue = [132, 65, 46]"] ;
118 -> 119 ;
395 [label="X[15] <= 2.137\ngini = 0.515\nsamples = 81\nvalue = [23, 51, 7]"] ;
119 -> 395 ;
629 [label="gini = 0.321\nsamples = 59\nvalue = [5, 48, 6]"] ;
395 -> 629 ;
630 [label="gini = 0.31\nsamples = 22\nvalue = [18, 3, 1]"] ;
395 -> 630 ;
396 [label="X[14] <= 2.941\ngini = 0.482\nsamples = 162\nvalue = [109, 14, 39]"] ;
119 -> 396 ;
517 [label="gini = 0.245\nsamples = 109\nvalue = [94, 4, 11]"] ;
396 -> 517 ;
518 [label="X[8] <= 1.022\ngini = 0.605\nsamples = 53\nvalue = [15, 10, 28]"] ;
396 -> 518 ;
803 [label="gini = 0.387\nsamples = 36\nvalue = [1, 8, 27]"] ;
518 -> 803 ;
804 [label="gini = 0.304\nsamples = 17\nvalue = [14, 2, 1]"] ;
518 -> 804 ;
120 [label="X[14] <= 1.857\ngini = 0.286\nsamples = 269\nvalue = [38, 7, 224]"] ;
118 -> 120 ;
653 [label="X[10] <= 1.308\ngini = 0.518\nsamples = 54\nvalue = [26, 1, 27]"] ;
120 -> 653 ;
911 [label="gini = 0.362\nsamples = 31\nvalue = [6, 1, 24]"] ;
653 -> 911 ;
912 [label="gini = 0.227\nsamples = 23\nvalue = [20, 0, 3]"] ;
653 -> 912 ;
654 [label="gini = 0.157\nsamples = 215\nvalue = [12, 6, 197]"] ;
120 -> 654 ;
48 [label="X[13] <= -0.727\ngini = 0.663\nsamples = 663\nvalue = [189, 248, 226]"] ;
20 -> 48 ;
155 [label="X[11] <= -1.63\ngini = 0.543\nsamples = 360\nvalue = [28, 207, 125]"] ;
48 -> 155 ;
213 [label="X[19] <= -0.166\ngini = 0.517\nsamples = 168\nvalue = [14, 49, 105]"] ;
155 -> 213 ;
651 [label="gini = 0.504\nsamples = 51\nvalue = [3, 32, 16]"] ;
213 -> 651 ;
652 [label="X[9] <= 1.507\ngini = 0.391\nsamples = 117\nvalue = [11, 17, 89]"] ;
213 -> 652 ;
837 [label="gini = 0.208\nsamples = 96\nvalue = [3, 8, 85]"] ;
652 -> 837 ;
838 [label="gini = 0.635\nsamples = 21\nvalue = [8, 9, 4]"] ;
652 -> 838 ;
214 [label="X[6] <= -0.063\ngini = 0.307\nsamples = 192\nvalue = [14, 158, 20]"] ;
155 -> 214 ;
927 [label="gini = 0.62\nsamples = 46\nvalue = [8, 22, 16]"] ;
214 -> 927 ;
928 [label="gini = 0.13\nsamples = 146\nvalue = [6, 136, 4]"] ;
214 -> 928 ;
156 [label="X[9] <= -0.699\ngini = 0.588\nsamples = 303\nvalue = [161, 41, 101]"] ;
48 -> 156 ;
361 [label="X[11] <= 1.126\ngini = 0.564\nsamples = 127\nvalue = [35, 18, 74]"] ;
156 -> 361 ;
375 [label="gini = 0.319\nsamples = 84\nvalue = [3, 13, 68]"] ;
361 -> 375 ;
376 [label="gini = 0.413\nsamples = 43\nvalue = [32, 5, 6]"] ;
361 -> 376 ;
362 [label="gini = 0.447\nsamples = 176\nvalue = [126, 23, 27]"] ;
156 -> 362 ;
}